{"learner":{"attributes":{"scikit_learn":"{\"_estimator_type\": \"classifier\"}"},"feature_names":["latitude","longitude","month"],"feature_types":["float","float","float"],"gradient_booster":{"model":{"cats":{"enc":[],"feature_segments":[],"sorted_idx":[]},"gbtree_model_param":{"num_parallel_tree":"1","num_trees":"150"},"iteration_indptr":[0,1,2,3,4,5,6,7,8,9,10,11,12,13,14,15,16,17,18,19,20,21,22,23,24,25,26,27,28,29,30,31,32,33,34,35,36,37,38,39,40,41,42,43,44,45,46,47,48,49,50,51,52,53,54,55,56,57,58,59,60,61,62,63,64,65,66,67,68,69,70,71,72,73,74,75,76,77,78,79,80,81,82,83,84,85,86,87,88,89,90,91,92,93,94,95,96,97,98,99,100,101,102,103,104,105,106,107,108,109,110,111,112,113,114,115,116,117,118,119,120,121,122,123,124,125,126,127,128,129,130,131,132,133,134,135,136,137,138,139,140,141,142,143,144,145,146,147,148,149,150],"tree_info":[0,0,0,0,0,0,0,0,0,0,0,0,0,0,0,0,0,0,0,0,0,0,0,0,0,0,0,0,0,0,0,0,0,0,0,0,0,0,0,0,0,0,0,0,0,0,0,0,0,0,0,0,0,0,0,0,0,0,0,0,0,0,0,0,0,0,0,0,0,0,0,0,0,0,0,0,0,0,0,0,0,0,0,0,0,0,0,0,0,0,0,0,0,0,0,0,0,0,0,0,0,0,0,0,0,0,0,0,0,0,0,0,0,0,0,0,0,0,0,0,0,0,0,0,0,0,0,0,0,0,0,0,0,0,0,0,0,0,0,0,0,0,0,0,0,0,0,0,0,0],"trees":[{"base_weights":[-4.2772417E-8,3.699008E-1,-8.339789E-2,8.913979E-1,-8.216046E-2,-2.8457243E-2,9.419935E-2],"categories":[],"categories_nodes":[],"categories_segments":[],"categories_sizes":[],"default_left":[0,0,0,0,0,0,0],"id":0,"left_children":[1,3,-1,5,-1,-1,-1],"loss_changes":[3.1185684E2,4.3579028E2,0E0,4.783735E2,0E0,0E0,0E0],"parents":[2147483647,0,0,1,1,3,3],"right_children":[2,4,-1,6,-1,-1,-1],"split_conditions":[9E0,-1.17058266E2,-8.339789E-2,-1.1742917E2,-8.216046E-2,-2.8457243E-2,9.419935E-2],"split_indices":[2,1,0,1,0,0,0],"split_type":[0,0,0,0,0,0,0],"sum_hessian":[5.0345782E2,4.1270993E2,9.074791E1,3.2823712E2,8.447279E1,1.3298431E2,1.9525282E2],"tree_param":{"num_deleted":"0","num_feature":"3","num_nodes":"7","size_leaf_vector":"1"}},{"base_weights":[-7.500092E-4,3.501005E-1,-8.066671E-2,8.406823E-1,-7.9449564E-2,-2.835818E-2,8.736134E-2],"categories":[],"categories_nodes":[],"categories_segments":[],"categories_sizes":[],"default_left":[0,0,0,0,0,0,0],"id":1,"left_children":[1,3,-1,5,-1,-1,-1],"loss_changes":[2.855983E2,3.957284E2,0E0,4.241183E2,0E0,0E0,0E0],"parents":[2147483647,0,0,1,1,3,3],"right_children":[2,4,-1,6,-1,-1,-1],"split_conditions":[9E0,-1.17058266E2,-8.066671E-2,-1.1745458E2,-7.9449564E-2,-2.835818E-2,8.736134E-2],"split_indices":[2,1,0,1,0,0,0],"split_type":[0,0,0,0,0,0,0],"sum_hessian":[5.0279208E2,4.1359006E2,8.920203E1,3.3053308E2,8.3056984E1,1.2961613E2,2.0091695E2],"tree_param":{"num_deleted":"0","num_feature":"3","num_nodes":"7","size_leaf_vector":"1"}},{"base_weights":[-1.3928177E-3,3.3233163E-1,-7.822982E-2,7.8965056E-1,-7.821614E-2,-2.604845E-2,8.207986E-2],"categories":[],"categories_nodes":[],"categories_segments":[],"categories_sizes":[],"default_left":[0,0,0,0,0,0,0],"id":2,"left_children":[1,3,-1,5,-1,-1,-1],"loss_changes":[2.6230008E2,3.6062903E2,0E0,3.7436542E2,0E0,0E0,0E0],"parents":[2147483647,0,0,1,1,3,3],"right_children":[2,4,-1,6,-1,-1,-1],"split_conditions":[9E0,-1.17048416E2,-7.822982E-2,-1.1742917E2,-7.821614E-2,-2.604845E-2,8.207986E-2],"split_indices":[2,1,0,1,0,0,0],"split_type":[0,0,0,0,0,0,0],"sum_hessian":[5.008028E2,4.13346E2,8.74568E1,3.3351334E2,7.983266E1,1.315412E2,2.0197214E2],"tree_param":{"num_deleted":"0","num_feature":"3","num_nodes":"7","size_leaf_vector":"1"}},{"base_weights":[-1.9487012E-3,3.1623948E-1,-7.6043874E-2,7.547766E-1,-7.4904285E-2,-3.2600638E-2,7.3920265E-2],"categories":[],"categories_nodes":[],"categories_segments":[],"categories_sizes":[],"default_left":[0,0,0,0,0,0,0],"id":3,"left_children":[1,3,-1,5,-1,-1,-1],"loss_changes":[2.4151192E2,3.2986462E2,0E0,3.4036667E2,0E0,0E0,0E0],"parents":[2147483647,0,0,1,1,3,3],"right_children":[2,4,-1,6,-1,-1,-1],"split_conditions":[9E0,-1.17058266E2,-7.6043874E-2,-1.17566666E2,-7.4904285E-2,-3.2600638E-2,7.3920265E-2],"split_indices":[2,1,0,1,0,0,0],"split_type":[0,0,0,0,0,0,0],"sum_hessian":[4.9771375E2,4.1216452E2,8.554923E1,3.324038E2,7.976072E1,1.1293958E2,2.1946422E2],"tree_param":{"num_deleted":"0","num_feature":"3","num_nodes":"7","size_leaf_vector":"1"}},{"base_weights":[-2.477595E-3,3.0143553E-1,-7.4073635E-2,7.1181005E-1,-7.407961E-2,-2.4120687E-2,7.3669426E-2],"categories":[],"categories_nodes":[],"categories_segments":[],"categories_sizes":[],"default_left":[0,0,0,0,0,0,0],"id":4,"left_children":[1,3,-1,5,-1,-1,-1],"loss_changes":[2.2285051E2,3.0199527E2,0E0,3.054013E2,0E0,0E0,0E0],"parents":[2147483647,0,0,1,1,3,3],"right_children":[2,4,-1,6,-1,-1,-1],"split_conditions":[9E0,-1.17048416E2,-7.4073635E-2,-1.1742917E2,-7.407961E-2,-2.4120687E-2,7.3669426E-2],"split_indices":[2,1,0,1,0,0,0],"split_type":[0,0,0,0,0,0,0],"sum_hessian":[4.9379614E2,4.1028452E2,8.351163E1,3.340107E2,7.6273796E1,1.3020464E2,2.0380609E2],"tree_param":{"num_deleted":"0","num_feature":"3","num_nodes":"7","size_leaf_vector":"1"}},{"base_weights":[-2.911701E-3,2.8795108E-1,-7.2290145E-2,6.8327856E-1,-7.119284E-2,-3.0211434E-2,6.672227E-2],"categories":[],"categories_nodes":[],"categories_segments":[],"categories_sizes":[],"default_left":[0,0,0,0,0,0,0],"id":5,"left_children":[1,3,-1,5,-1,-1,-1],"loss_changes":[2.0606471E2,2.775071E2,0E0,2.7969095E2,0E0,0E0,0E0],"parents":[2147483647,0,0,1,1,3,3],"right_children":[2,4,-1,6,-1,-1,-1],"split_conditions":[9E0,-1.17058266E2,-7.2290145E-2,-1.17566666E2,-7.119284E-2,-3.0211434E-2,6.672227E-2],"split_indices":[2,1,0,1,0,0,0],"split_type":[0,0,0,0,0,0,0],"sum_hessian":[4.8900854E2,4.076363E2,8.1372246E1,3.3164627E2,7.599004E1,1.114184E2,2.2022784E2],"tree_param":{"num_deleted":"0","num_feature":"3","num_nodes":"7","size_leaf_vector":"1"}},{"base_weights":[-3.3433808E-3,2.753842E-1,-7.0669286E-2,6.568861E-1,-6.840371E-2,-2.234978E-2,6.83272E-2],"categories":[],"categories_nodes":[],"categories_segments":[],"categories_sizes":[],"default_left":[0,0,0,0,0,0,0],"id":6,"left_children":[1,3,-1,5,-1,-1,-1],"loss_changes":[1.908708E2,2.5514536E2,0E0,2.589583E2,0E0,0E0,0E0],"parents":[2147483647,0,0,1,1,3,3],"right_children":[2,4,-1,6,-1,-1,-1],"split_conditions":[9E0,-1.17070564E2,-7.0669286E-2,-1.1742917E2,-6.840371E-2,-2.234978E-2,6.83272E-2],"split_indices":[2,1,0,1,0,0,0],"split_type":[0,0,0,0,0,0,0],"sum_hessian":[4.8366412E2,4.0450836E2,7.9155754E1,3.2878632E2,7.5722046E1,1.2880252E2,1.999838E2],"tree_param":{"num_deleted":"0","num_feature":"3","num_nodes":"7","size_leaf_vector":"1"}},{"base_weights":[-3.6769812E-3,2.6383984E-1,-6.919094E-2,6.1790985E-1,-6.9246896E-2,-4.0655665E-2,5.562522E-2],"categories":[],"categories_nodes":[],"categories_segments":[],"categories_sizes":[],"default_left":[0,0,0,0,0,0,0],"id":7,"left_children":[1,3,-1,5,-1,-1,-1],"loss_changes":[1.7710858E2,2.3543251E2,0E0,2.3551688E2,0E0,0E0,0E0],"parents":[2147483647,0,0,1,1,3,3],"right_children":[2,4,-1,6,-1,-1,-1],"split_conditions":[9E0,-1.17048416E2,-6.919094E-2,-1.1780962E2,-6.9246896E-2,-4.0655665E-2,5.562522E-2],"split_indices":[2,1,0,1,0,0,0],"split_type":[0,0,0,0,0,0,0],"sum_hessian":[4.7770563E2,4.00822E2,7.688364E1,3.3047806E2,7.0343925E1,8.471782E1,2.4576025E2],"tree_param":{"num_deleted":"0","num_feature":"3","num_nodes":"7","size_leaf_vector":"1"}},{"base_weights":[-4.1331314E-3,2.52588E-1,-6.7838125E-2,5.897309E-1,-6.788303E-2,-2.1051547E-2,6.1464638E-2],"categories":[],"categories_nodes":[],"categories_segments":[],"categories_sizes":[],"default_left":[0,0,0,0,0,0,0],"id":8,"left_children":[1,3,-1,5,-1,-1,-1],"loss_changes":[1.6451576E2,2.1698138E2,0E0,2.1382187E2,0E0,0E0,0E0],"parents":[2147483647,0,0,1,1,3,3],"right_children":[2,4,-1,6,-1,-1,-1],"split_conditions":[9E0,-1.17048416E2,-6.7838125E-2,-1.1742917E2,-6.788303E-2,-2.1051547E-2,6.1464638E-2],"split_indices":[2,1,0,1,0,0,0],"split_type":[0,0,0,0,0,0,0],"sum_hessian":[4.7178256E2,3.9720804E2,7.457451E1,3.289653E2,6.824275E1,1.27618706E2,2.0134659E2],"tree_param":{"num_deleted":"0","num_feature":"3","num_nodes":"7","size_leaf_vector":"1"}},{"base_weights":[-4.4296565E-3,2.424645E-1,-6.659634E-2,5.746664E-1,-6.444494E-2,-3.8306873E-2,5.202827E-2],"categories":[],"categories_nodes":[],"categories_segments":[],"categories_sizes":[],"default_left":[0,0,0,0,0,0,0],"id":9,"left_children":[1,3,-1,5,-1,-1,-1],"loss_changes":[1.5308214E2,2.0109474E2,0E0,2.0339539E2,0E0,0E0,0E0],"parents":[2147483647,0,0,1,1,3,3],"right_children":[2,4,-1,6,-1,-1,-1],"split_conditions":[9E0,-1.17070564E2,-6.659634E-2,-1.1780962E2,-6.444494E-2,-3.8306873E-2,5.202827E-2],"split_indices":[2,1,0,1,0,0,0],"split_type":[0,0,0,0,0,0,0],"sum_hessian":[4.650827E2,3.9283817E2,7.224454E1,3.233236E2,6.951455E1,8.3210075E1,2.4011353E2],"tree_param":{"num_deleted":"0","num_feature":"3","num_nodes":"7","size_leaf_vector":"1"}},{"base_weights":[-4.8182067E-3,2.3253644E-1,-6.5453224E-2,-7.46505E-2,5.1890314E-1,5.2319694E-2,-3.7888996E-2],"categories":[],"categories_nodes":[],"categories_segments":[],"categories_sizes":[],"default_left":[0,0,0,0,0,0,0],"id":10,"left_children":[1,3,-1,-1,5,-1,-1],"loss_changes":[1.4257002E2,1.9331735E2,0E0,0E0,2.2634995E2,0E0,0E0],"parents":[2147483647,0,0,1,1,4,4],"right_children":[2,4,-1,-1,6,-1,-1],"split_conditions":[9E0,4.7264458E1,-6.5453224E-2,-7.46505E-2,4.8045006E1,5.2319694E-2,-3.7888996E-2],"split_indices":[2,0,0,0,0,0,0],"split_type":[0,0,0,0,0,0,0],"sum_hessian":[4.5856042E2,3.8865274E2,6.990768E1,5.4719334E1,3.339334E2,2.3642812E2,9.7505295E1],"tree_param":{"num_deleted":"0","num_feature":"3","num_nodes":"7","size_leaf_vector":"1"}},{"base_weights":[-5.195926E-3,2.2267859E-1,-6.439815E-2,-7.287582E-2,4.9624407E-1,4.9920082E-2,-3.6482975E-2],"categories":[],"categories_nodes":[],"categories_segments":[],"categories_sizes":[],"default_left":[0,0,0,0,0,0,0],"id":11,"left_children":[1,3,-1,-1,5,-1,-1],"loss_changes":[1.3288757E2,1.7817087E2,0E0,0E0,2.0556558E2,0E0,0E0],"parents":[2147483647,0,0,1,1,4,4],"right_children":[2,4,-1,-1,6,-1,-1],"split_conditions":[9E0,4.7264458E1,-6.439815E-2,-7.287582E-2,4.8045006E1,4.9920082E-2,-3.6482975E-2],"split_indices":[2,0,0,0,0,0,0],"split_type":[0,0,0,0,0,0,0],"sum_hessian":[4.526308E2,3.8505493E2,6.757588E1,5.3309395E1,3.317455E2,2.3547519E2,9.627033E1],"tree_param":{"num_deleted":"0","num_feature":"3","num_nodes":"7","size_leaf_vector":"1"}},{"base_weights":[-5.5513987E-3,2.6892793E-1,-1.0256009E0,5.8902836E-1,-6.297599E-2,-2.2588199E-2,-6.342185E-2,-1.955363E-2,6.0460705E-2],"categories":[],"categories_nodes":[],"categories_segments":[],"categories_sizes":[],"default_left":[0,0,0,0,0,0,0,0,0],"id":12,"left_children":[1,3,5,7,-1,-1,-1,-1,-1],"loss_changes":[1.2556145E2,1.736405E2,1.2677086E1,1.7849692E2,0E0,0E0,0E0,0E0,0E0],"parents":[2147483647,0,0,1,1,2,2,3,3],"right_children":[2,4,6,8,-1,-1,-1,-1,-1],"split_conditions":[8E0,-1.17070564E2,9E0,-1.1745458E2,-6.297599E-2,-2.2588199E-2,-6.342185E-2,-1.955363E-2,6.0460705E-2],"split_indices":[2,1,2,1,0,0,0,0,0],"split_type":[0,0,0,0,0,0,0,0,0],"sum_hessian":[4.4647668E2,3.5239032E2,9.408636E1,2.918775E2,6.0512836E1,2.8826914E1,6.5259445E1,1.1325931E2,1.7861818E2],"tree_param":{"num_deleted":"0","num_feature":"3","num_nodes":"9","size_leaf_vector":"1"}},{"base_weights":[-5.766848E-3,-7.1067385E-2,1.8389292E-1,5.282919E-1,-9.828213E-1,5.1122528E-2,-3.4247484E-2,-1.4721306E-2,-6.251372E-2],"categories":[],"categories_nodes":[],"categories_segments":[],"categories_sizes":[],"default_left":[0,0,0,0,0,0,0,0,0],"id":13,"left_children":[1,-1,3,5,7,-1,-1,-1,-1],"loss_changes":[1.1843283E2,0E0,1.5683871E2,1.8117133E2,1.6020653E1,0E0,0E0,0E0,0E0],"parents":[2147483647,0,0,2,2,3,3,4,4],"right_children":[2,-1,4,6,8,-1,-1,-1,-1],"split_conditions":[4.7264458E1,-7.1067385E-2,8E0,4.8045006E1,9E0,5.1122528E-2,-3.4247484E-2,-1.4721306E-2,-6.251372E-2],"split_indices":[0,0,2,0,2,0,0,0,0],"split_type":[0,0,0,0,0,0,0,0,0],"sum_hessian":[4.3915207E2,5.1118687E1,3.880334E2,3.000189E2,8.80145E1,2.1329865E2,8.672022E1,2.5214901E1,6.27996E1],"tree_param":{"num_deleted":"0","num_feature":"3","num_nodes":"9","size_leaf_vector":"1"}},{"base_weights":[-6.1021135E-3,1.9574247E-1,-6.336861E-2,5.4259574E-1,-9.632917E-1,-6.788789E-2,4.1693237E-2,-1.4235549E-2,-6.1674263E-2],"categories":[],"categories_nodes":[],"categories_segments":[],"categories_sizes":[],"default_left":[0,0,0,0,0,0,0,0,0],"id":14,"left_children":[1,3,-1,5,7,-1,-1,-1,-1],"loss_changes":[1.10686485E2,1.5120819E2,0E0,1.611704E2,1.5544083E1,0E0,0E0,0E0,0E0],"parents":[2147483647,0,0,1,1,3,3,4,4],"right_children":[2,4,-1,6,8,-1,-1,-1,-1],"split_conditions":[-1.17048416E2,8E0,-6.336861E-2,-1.1817105E2,9E0,-6.788789E-2,4.1693237E-2,-1.4235549E-2,-6.1674263E-2],"split_indices":[1,2,0,1,2,0,0,0,0],"split_type":[0,0,0,0,0,0,0,0,0],"sum_hessian":[4.328054E2,3.738258E2,5.897959E1,2.8813132E2,8.569449E1,3.7806335E1,2.5032498E2,2.4989082E1,6.070541E1],"tree_param":{"num_deleted":"0","num_feature":"3","num_nodes":"9","size_leaf_vector":"1"}},{"base_weights":[-6.6079935E-3,-6.9646716E-2,1.7566107E-1,4.3313447E-1,-6.0887586E-2,4.3593675E-2,-3.277914E-2],"categories":[],"categories_nodes":[],"categories_segments":[],"categories_sizes":[],"default_left":[0,0,0,0,0,0,0],"id":15,"left_children":[1,-1,3,5,-1,-1,-1],"loss_changes":[1.0826851E2,0E0,1.3639864E2,1.5360995E2,0E0,0E0,0E0],"parents":[2147483647,0,0,2,2,3,3],"right_children":[2,-1,4,6,-1,-1,-1],"split_conditions":[4.7264458E1,-6.9646716E-2,9E0,4.8045006E1,-6.0887586E-2,4.3593675E-2,-3.277914E-2],"split_indices":[0,0,2,0,0,0,0],"split_type":[0,0,0,0,0,0,0],"sum_hessian":[4.2650494E2,4.8787594E1,3.7771738E2,3.1938995E2,5.8327396E1,2.2779192E2,9.1598045E1],"tree_param":{"num_deleted":"0","num_feature":"3","num_nodes":"7","size_leaf_vector":"1"}},{"base_weights":[-6.897594E-3,1.8608056E-1,-6.2238973E-2,5.0816166E-1,-9.310255E-1,-6.590835E-2,3.9105594E-2,-1.448468E-2,-6.0157664E-2],"categories":[],"categories_nodes":[],"categories_segments":[],"categories_sizes":[],"default_left":[0,0,0,0,0,0,0,0,0],"id":16,"left_children":[1,3,-1,5,7,-1,-1,-1,-1],"loss_changes":[1.0081205E2,1.3184538E2,0E0,1.431532E2,1.3973999E1,0E0,0E0,0E0,0E0],"parents":[2147483647,0,0,1,1,3,3,4,4],"right_children":[2,4,-1,6,8,-1,-1,-1,-1],"split_conditions":[-1.17048416E2,8E0,-6.2238973E-2,-1.1817105E2,9E0,-6.590835E-2,3.9105594E-2,-1.448468E-2,-6.0157664E-2],"split_indices":[1,2,0,1,2,0,0,0,0],"split_type":[0,0,0,0,0,0,0,0,0],"sum_hessian":[4.2004263E2,3.6412714E2,5.5915497E1,2.8306088E2,8.106625E1,3.642392E1,2.4663696E2,2.4765406E1,5.630085E1],"tree_param":{"num_deleted":"0","num_feature":"3","num_nodes":"9","size_leaf_vector":"1"}},{"base_weights":[-7.3743192E-3,-6.843777E-2,1.681654E-1,4.0537852E-1,-5.9470415E-2,4.094817E-2,-3.1330116E-2],"categories":[],"categories_nodes":[],"categories_segments":[],"categories_sizes":[],"default_left":[0,0,0,0,0,0,0],"id":17,"left_children":[1,-1,3,5,-1,-1,-1],"loss_changes":[9.933326E1,0E0,1.190629E2,1.3461697E2,0E0,0E0,0E0],"parents":[2147483647,0,0,2,2,3,3],"right_children":[2,-1,4,6,-1,-1,-1],"split_conditions":[4.7264458E1,-6.843777E-2,9E0,4.8045006E1,-5.9470415E-2,4.094817E-2,-3.1330116E-2],"split_indices":[0,0,2,0,0,0,0],"split_type":[0,0,0,0,0,0,0],"sum_hessian":[4.1369815E2,4.647425E1,3.6722388E2,3.1319904E2,5.4024857E1,2.237383E2,8.946073E1],"tree_param":{"num_deleted":"0","num_feature":"3","num_nodes":"7","size_leaf_vector":"1"}},{"base_weights":[-7.6331035E-3,-6.720083E-2,1.6168994E-1,3.8878748E-1,-5.882841E-2,3.9229937E-2,-3.0161206E-2],"categories":[],"categories_nodes":[],"categories_segments":[],"categories_sizes":[],"default_left":[0,0,0,0,0,0,0],"id":18,"left_children":[1,-1,3,5,-1,-1,-1],"loss_changes":[9.259988E1,0E0,1.108537E2,1.22704956E2,0E0,0E0,0E0],"parents":[2147483647,0,0,2,2,3,3],"right_children":[2,-1,4,6,-1,-1,-1],"split_conditions":[4.7264458E1,-6.720083E-2,9E0,4.8045006E1,-5.882841E-2,3.9229937E-2,-3.0161206E-2],"split_indices":[0,0,2,0,0,0,0],"split_type":[0,0,0,0,0,0,0],"sum_hessian":[4.0726562E2,4.501857E1,3.6224704E2,3.102998E2,5.1947266E1,2.219508E2,8.834898E1],"tree_param":{"num_deleted":"0","num_feature":"3","num_nodes":"7","size_leaf_vector":"1"}},{"base_weights":[-7.879353E-3,1.7633893E-1,-6.1152514E-2,4.6829018E-1,-8.9335394E-1,-6.398097E-2,3.6218256E-2,-1.5542099E-2,-5.822763E-2],"categories":[],"categories_nodes":[],"categories_segments":[],"categories_sizes":[],"default_left":[0,0,0,0,0,0,0,0,0],"id":19,"left_children":[1,3,-1,5,7,-1,-1,-1,-1],"loss_changes":[9.0178116E1,1.0967446E2,0E0,1.2423547E2,1.1542248E1,0E0,0E0,0E0,0E0],"parents":[2147483647,0,0,1,1,3,3,4,4],"right_children":[2,4,-1,6,8,-1,-1,-1,-1],"split_conditions":[-1.17048416E2,8E0,-6.1152514E-2,-1.1817105E2,9E0,-6.398097E-2,3.6218256E-2,-1.5542099E-2,-5.822763E-2],"split_indices":[1,2,0,1,2,0,0,0,0],"split_type":[0,0,0,0,0,0,0,0,0],"sum_hessian":[4.0087512E2,3.488455E2,5.2029625E1,2.744909E2,7.4354576E1,3.4564487E1,2.3992642E2,2.4302029E1,5.0052547E1],"tree_param":{"num_deleted":"0","num_feature":"3","num_nodes":"9","size_leaf_vector":"1"}},{"base_weights":[-8.326115E-3,-6.6242784E-2,1.550687E-1,4.2325935E-1,-8.7088996E-1,4.1230287E-2,-2.8924588E-2,-1.4738524E-2,-5.7658155E-2],"categories":[],"categories_nodes":[],"categories_segments":[],"categories_sizes":[],"default_left":[0,0,0,0,0,0,0,0,0],"id":20,"left_children":[1,-1,3,5,7,-1,-1,-1,-1],"loss_changes":[8.531203E1,0E0,9.745584E1,1.1321151E2,1.160458E1,0E0,0E0,0E0,0E0],"parents":[2147483647,0,0,2,2,3,3,4,4],"right_children":[2,-1,4,6,8,-1,-1,-1,-1],"split_conditions":[4.7264458E1,-6.6242784E-2,8E0,4.8045006E1,9E0,4.1230287E-2,-2.8924588E-2,-1.4738524E-2,-5.7658155E-2],"split_indices":[0,0,2,0,2,0,0,0,0],"split_type":[0,0,0,0,0,0,0,0,0],"sum_hessian":[3.946346E2,4.2785828E1,3.518488E2,2.7939975E2,7.244903E1,1.9960564E2,7.979413E1,2.4496313E1,4.7952713E1],"tree_param":{"num_deleted":"0","num_feature":"3","num_nodes":"9","size_leaf_vector":"1"}},{"base_weights":[-8.555076E-3,1.6855578E-1,-6.0358047E-2,4.3840337E-1,-8.5268354E-1,-6.254657E-2,3.4027264E-2,-1.3898514E-2,-5.71256E-2],"categories":[],"categories_nodes":[],"categories_segments":[],"categories_sizes":[],"default_left":[0,0,0,0,0,0,0,0,0],"id":21,"left_children":[1,3,-1,5,7,-1,-1,-1,-1],"loss_changes":[8.285752E1,9.409937E1,0E0,1.1116627E2,1.1579399E1,0E0,0E0,0E0,0E0],"parents":[2147483647,0,0,1,1,3,3,4,4],"right_children":[2,4,-1,6,8,-1,-1,-1,-1],"split_conditions":[-1.17048416E2,8E0,-6.0358047E-2,-1.1817105E2,9E0,-6.254657E-2,3.4027264E-2,-1.3898514E-2,-5.71256E-2],"split_indices":[1,2,0,1,2,0,0,0,0],"split_type":[0,0,0,0,0,0,0,0,0],"sum_hessian":[3.8835214E2,3.391041E2,4.924802E1,2.6868002E2,7.042407E1,3.3161102E1,2.3551894E2,2.426569E1,4.6158382E1],"tree_param":{"num_deleted":"0","num_feature":"3","num_nodes":"9","size_leaf_vector":"1"}},{"base_weights":[-8.97608E-3,-6.540882E-2,1.4892313E-1,3.4241936E-1,-5.6618262E-2,2.7355595E-2,-6.050856E-2],"categories":[],"categories_nodes":[],"categories_segments":[],"categories_sizes":[],"default_left":[0,0,0,0,0,0,0],"id":22,"left_children":[1,-1,3,5,-1,-1,-1],"loss_changes":[7.881376E1,0E0,8.5328674E1,9.550253E1,0E0,0E0,0E0],"parents":[2147483647,0,0,2,2,3,3],"right_children":[2,-1,4,6,-1,-1,-1],"split_conditions":[4.7264458E1,-6.540882E-2,9E0,-1.17048416E2,-5.6618262E-2,2.7355595E-2,-6.050856E-2],"split_indices":[0,0,2,1,0,0,0],"split_type":[0,0,0,0,0,0,0],"sum_hessian":[3.8224026E2,4.0632202E1,3.4160806E2,2.9742465E2,4.418341E1,2.633521E2,3.407255E1],"tree_param":{"num_deleted":"0","num_feature":"3","num_nodes":"7","size_leaf_vector":"1"}},{"base_weights":[-9.3773315E-3,-6.438369E-2,1.4272237E-1,3.2768038E-1,-5.6140345E-2,3.4079913E-2,-2.7956685E-2],"categories":[],"categories_nodes":[],"categories_segments":[],"categories_sizes":[],"default_left":[0,0,0,0,0,0,0],"id":23,"left_children":[1,-1,3,5,-1,-1,-1],"loss_changes":[7.362619E1,0E0,7.959328E1,9.330965E1,0E0,0E0,0E0],"parents":[2147483647,0,0,2,2,3,3],"right_children":[2,-1,4,6,-1,-1,-1],"split_conditions":[4.7264458E1,-6.438369E-2,9E0,4.8045006E1,-5.6140345E-2,3.4079913E-2,-2.7956685E-2],"split_indices":[0,0,2,0,0,0,0],"split_type":[0,0,0,0,0,0,0],"sum_hessian":[3.767348E2,3.9265816E1,3.3746896E2,2.950834E2,4.238558E1,2.1107648E2,8.400692E1],"tree_param":{"num_deleted":"0","num_feature":"3","num_nodes":"7","size_leaf_vector":"1"}},{"base_weights":[-9.55724E-3,1.5406466E-1,-5.8984604E-2,3.9780647E-1,-8.217169E-1,-6.1538476E-2,3.1367663E-2,-1.4992932E-2,-5.568965E-2],"categories":[],"categories_nodes":[],"categories_segments":[],"categories_sizes":[],"default_left":[0,0,0,0,0,0,0,0,0],"id":24,"left_children":[1,3,-1,5,7,-1,-1,-1,-1],"loss_changes":[7.135958E1,7.811003E1,0E0,9.884784E1,9.678772E0,0E0,0E0,0E0,0E0],"parents":[2147483647,0,0,1,1,3,3,4,4],"right_children":[2,4,-1,6,8,-1,-1,-1,-1],"split_conditions":[-1.17048416E2,8E0,-5.8984604E-2,-1.1817105E2,9E0,-6.1538476E-2,3.1367663E-2,-1.4992932E-2,-5.568965E-2],"split_indices":[1,2,0,1,2,0,0,0,0],"split_type":[0,0,0,0,0,0,0,0,0],"sum_hessian":[3.7076413E2,3.2604153E2,4.472259E1,2.613507E2,6.469083E1,3.1747633E1,2.2960307E2,2.3941214E1,4.0749615E1],"tree_param":{"num_deleted":"0","num_feature":"3","num_nodes":"9","size_leaf_vector":"1"}},{"base_weights":[-9.947032E-3,-6.369057E-2,1.3718691E-1,3.0808017E-1,-5.525692E-2,3.218643E-2,-2.6742233E-2],"categories":[],"categories_nodes":[],"categories_segments":[],"categories_sizes":[],"default_left":[0,0,0,0,0,0,0],"id":25,"left_children":[1,-1,3,5,-1,-1,-1],"loss_changes":[6.822519E1,0E0,7.012293E1,8.231512E1,0E0,0E0,0E0],"parents":[2147483647,0,0,2,2,3,3],"right_children":[2,-1,4,6,-1,-1,-1],"split_conditions":[4.7264458E1,-6.369057E-2,9E0,4.8045006E1,-5.525692E-2,3.218643E-2,-2.6742233E-2],"split_indices":[0,0,2,0,0,0,0],"split_type":[0,0,0,0,0,0,0],"sum_hessian":[3.649465E2,3.7256844E1,3.2768967E2,2.887249E2,3.896475E1,2.0666733E2,8.205759E1],"tree_param":{"num_deleted":"0","num_feature":"3","num_nodes":"7","size_leaf_vector":"1"}},{"base_weights":[-1.0105056E-2,1.4748009E-1,-5.839149E-2,-6.4887315E-2,3.0059102E-1,2.913409E-2,-3.901298E-2],"categories":[],"categories_nodes":[],"categories_segments":[],"categories_sizes":[],"default_left":[0,0,0,0,0,0,0],"id":26,"left_children":[1,3,-1,-1,5,-1,-1],"loss_changes":[6.58893E1,7.0744514E1,0E0,0E0,8.83561E1,0E0,0E0],"parents":[2147483647,0,0,1,1,4,4],"right_children":[2,4,-1,-1,6,-1,-1],"split_conditions":[-1.17048416E2,-1.18228485E2,-5.839149E-2,-6.4887315E-2,8E0,2.913409E-2,-3.901298E-2],"split_indices":[1,1,0,0,2,0,0],"split_type":[0,0,0,0,0,0,0],"sum_hessian":[3.5921152E2,3.1694305E2,4.2268486E1,2.9645065E1,2.8729797E2,2.2820084E2,5.9097134E1],"tree_param":{"num_deleted":"0","num_feature":"3","num_nodes":"7","size_leaf_vector":"1"}},{"base_weights":[-1.0340218E-2,-6.304103E-2,1.3169974E-1,2.9176956E-1,-5.4568093E-2,2.3523245E-2,-5.861136E-2],"categories":[],"categories_nodes":[],"categories_segments":[],"categories_sizes":[],"default_left":[0,0,0,0,0,0,0],"id":27,"left_children":[1,-1,3,5,-1,-1,-1],"loss_changes":[6.324391E1,0E0,6.292989E1,7.474132E1,0E0,0E0,0E0],"parents":[2147483647,0,0,2,2,3,3],"right_children":[2,-1,4,6,-1,-1,-1],"split_conditions":[4.7264458E1,-6.304103E-2,9E0,-1.17048416E2,-5.4568093E-2,2.3523245E-2,-5.861136E-2],"split_indices":[0,0,2,1,0,0,0],"split_type":[0,0,0,0,0,0,0],"sum_hessian":[3.5413177E2,3.5318752E1,3.1881302E2,2.825901E2,3.622291E1,2.5245421E2,3.0135895E1],"tree_param":{"num_deleted":"0","num_feature":"3","num_nodes":"7","size_leaf_vector":"1"}},{"base_weights":[-1.0691191E-2,-1.0183223E0,1.5784582E-1,-6.338394E-2,-2.3720449E-2,4.375936E-1,-5.506559E-1,3.8131293E-2,-3.7800193E-2,-2.9825142E-3,-6.980651E-2],"categories":[],"categories_nodes":[],"categories_segments":[],"categories_sizes":[],"default_left":[0,0,0,0,0,0,0,0,0,0,0],"id":28,"left_children":[1,3,5,-1,-1,7,9,-1,-1,-1,-1],"loss_changes":[5.9619053E1,6.2212334E0,5.986305E1,0E0,0E0,8.446051E1,3.5450302E1,0E0,0E0,0E0,0E0],"parents":[2147483647,0,0,1,1,2,2,5,5,6,6],"right_children":[2,4,6,-1,-1,8,10,-1,-1,-1,-1],"split_conditions":[4.7412598E1,4.723794E1,4.8045006E1,-6.338394E-2,-2.3720449E-2,8E0,-1.1765987E2,3.8131293E-2,-3.7800193E-2,-2.9825142E-3,-6.980651E-2],"split_indices":[0,0,0,0,0,2,1,0,0,0,0],"split_type":[0,0,0,0,0,0,0,0,0,0,0],"sum_hessian":[3.4911902E2,4.9303913E1,2.9981512E2,3.2893345E1,1.6410566E1,2.1521938E2,8.459575E1,1.6943977E2,4.5779606E1,5.4193596E1,3.0402151E1],"tree_param":{"num_deleted":"0","num_feature":"3","num_nodes":"11","size_leaf_vector":"1"}},{"base_weights":[-1.0897663E-2,1.353314E-1,-5.5770297E-2,-6.424319E-2,2.853477E-1,2.3940597E-2,-5.39656E-2],"categories":[],"categories_nodes":[],"categories_segments":[],"categories_sizes":[],"default_left":[0,0,0,0,0,0,0],"id":29,"left_children":[1,3,-1,-1,5,-1,-1],"loss_changes":[5.5848206E1,6.543806E1,0E0,0E0,7.366493E1,0E0,0E0],"parents":[2147483647,0,0,1,1,4,4],"right_children":[2,4,-1,-1,6,-1,-1],"split_conditions":[-1.17058266E2,-1.18228485E2,-5.5770297E-2,-6.424319E-2,9E0,2.3940597E-2,-5.39656E-2],"split_indices":[1,1,0,0,2,0,0],"split_type":[0,0,0,0,0,0,0],"sum_hessian":[3.4385068E2,3.044245E2,3.9426174E1,2.8361647E1,2.7606287E2,2.4235408E2,3.370877E1],"tree_param":{"num_deleted":"0","num_feature":"3","num_nodes":"7","size_leaf_vector":"1"}},{"base_weights":[-1.1235717E-2,-6.284146E-2,1.1853612E-1,2.6237914E-1,-5.362164E-2,2.8139684E-2,-2.4711719E-2],"categories":[],"categories_nodes":[],"categories_segments":[],"categories_sizes":[],"default_left":[0,0,0,0,0,0,0],"id":30,"left_children":[1,-1,3,5,-1,-1,-1],"loss_changes":[5.506132E1,0E0,5.3144005E1,6.3040688E1,0E0,0E0,0E0],"parents":[2147483647,0,0,2,2,3,3],"right_children":[2,-1,4,6,-1,-1,-1],"split_conditions":[4.723794E1,-6.284146E-2,9E0,4.8045006E1,-5.362164E-2,2.8139684E-2,-2.4711719E-2],"split_indices":[0,0,2,0,0,0,0],"split_type":[0,0,0,0,0,0,0],"sum_hessian":[3.3871384E2,3.1139698E1,3.0757413E2,2.7512476E2,3.2449364E1,1.971158E2,7.8008965E1],"tree_param":{"num_deleted":"0","num_feature":"3","num_nodes":"7","size_leaf_vector":"1"}},{"base_weights":[-1.1349824E-2,-9.8802286E-1,1.480984E-1,-6.2061805E-2,-2.355559E-2,2.9062065E-1,-5.3198464E-2,3.0918172E-2,-2.3741458E-2],"categories":[],"categories_nodes":[],"categories_segments":[],"categories_sizes":[],"default_left":[0,0,0,0,0,0,0,0,0],"id":31,"left_children":[1,3,5,-1,-1,7,-1,-1,-1],"loss_changes":[5.225468E1,5.578911E0,5.0149837E1,0E0,0E0,6.5256035E1,0E0,0E0,0E0],"parents":[2147483647,0,0,1,1,2,2,5,5],"right_children":[2,4,6,-1,-1,8,-1,-1,-1],"split_conditions":[4.7412598E1,4.723794E1,9E0,-6.2061805E-2,-2.355559E-2,4.8045006E1,-5.3198464E-2,3.0918172E-2,-2.3741458E-2],"split_indices":[0,0,2,0,0,0,0,0,0],"split_type":[0,0,0,0,0,0,0,0,0],"sum_hessian":[3.3360965E2,4.6090935E1,2.875187E2,2.9995924E1,1.6095013E1,2.5794788E2,2.957084E1,1.8074878E2,7.719908E1],"tree_param":{"num_deleted":"0","num_feature":"3","num_nodes":"9","size_leaf_vector":"1"}},{"base_weights":[-1.1497307E-2,1.262565E-1,-5.6747224E-2,-6.333735E-2,2.695901E-1,2.5296763E-2,-3.5834502E-2],"categories":[],"categories_nodes":[],"categories_segments":[],"categories_sizes":[],"default_left":[0,0,0,0,0,0,0],"id":32,"left_children":[1,3,-1,-1,5,-1,-1],"loss_changes":[5.1118427E1,5.9104065E1,0E0,0E0,6.275804E1,0E0,0E0],"parents":[2147483647,0,0,1,1,4,4],"right_children":[2,4,-1,-1,6,-1,-1],"split_conditions":[-1.17048416E2,-1.18228485E2,-5.6747224E-2,-6.333735E-2,8E0,2.5296763E-2,-3.5834502E-2],"split_indices":[1,1,0,0,2,0,0],"split_type":[0,0,0,0,0,0,0],"sum_hessian":[3.283837E2,2.933069E2,3.5076813E1,2.663304E1,2.6667386E2,2.1551613E2,5.1157722E1],"tree_param":{"num_deleted":"0","num_feature":"3","num_nodes":"7","size_leaf_vector":"1"}},{"base_weights":[-1.1681668E-2,-6.1619587E-2,1.0939657E-1,2.3386213E-1,-5.6952626E-2,1.9620461E-2,-5.275422E-2],"categories":[],"categories_nodes":[],"categories_segments":[],"categories_sizes":[],"default_left":[0,0,0,0,0,0,0],"id":33,"left_children":[1,-1,3,5,-1,-1,-1],"loss_changes":[4.8161053E1,0E0,4.634461E1,5.5689228E1,0E0,0E0,0E0],"parents":[2147483647,0,0,2,2,3,3],"right_children":[2,-1,4,6,-1,-1,-1],"split_conditions":[4.723794E1,-6.1619587E-2,-1.17048416E2,9E0,-5.6952626E-2,1.9620461E-2,-5.275422E-2],"split_indices":[0,0,1,2,0,0,0],"split_type":[0,0,0,0,0,0,0],"sum_hessian":[3.239376E2,2.8402752E1,2.9553482E2,2.6948126E2,2.6053568E1,2.4058377E2,2.8897488E1],"tree_param":{"num_deleted":"0","num_feature":"3","num_nodes":"7","size_leaf_vector":"1"}},{"base_weights":[-1.1987074E-2,-9.572434E-1,1.380003E-1,-6.0897578E-2,-2.2860153E-2,3.908512E-1,-4.8996553E-1,3.3392813E-2,-3.5009738E-2,-6.22527E-4,-6.926398E-2],"categories":[],"categories_nodes":[],"categories_segments":[],"categories_sizes":[],"default_left":[0,0,0,0,0,0,0,0,0,0,0],"id":34,"left_children":[1,3,5,-1,-1,7,9,-1,-1,-1,-1],"loss_changes":[4.5587425E1,5.1833725E0,4.426621E1,0E0,0E0,6.0445232E1,3.4239174E1,0E0,0E0,0E0,0E0],"parents":[2147483647,0,0,1,1,2,2,5,5,6,6],"right_children":[2,4,6,-1,-1,8,10,-1,-1,-1,-1],"split_conditions":[4.7412598E1,4.723794E1,4.8045006E1,-6.0897578E-2,-2.2860153E-2,8E0,-1.1765987E2,3.3392813E-2,-3.5009738E-2,-6.22527E-4,-6.926398E-2],"split_indices":[0,0,0,0,0,2,1,0,0,0,0],"split_type":[0,0,0,0,0,0,0,0,0,0,0],"sum_hessian":[3.1961252E2,4.3032055E1,2.7658047E2,2.73413E1,1.5690757E1,1.9745334E2,7.912714E1,1.5778203E2,3.967131E1,5.2265358E1,2.6861778E1],"tree_param":{"num_deleted":"0","num_feature":"3","num_nodes":"11","size_leaf_vector":"1"}},{"base_weights":[-1.2155429E-2,-6.286965E-2,1.0144947E-1,2.6114023E-1,-5.264711E-2,2.090401E-2,-5.2263778E-2],"categories":[],"categories_nodes":[],"categories_segments":[],"categories_sizes":[],"default_left":[0,0,0,0,0,0,0],"id":35,"left_children":[1,-1,3,5,-1,-1,-1],"loss_changes":[4.483622E1,0E0,5.383537E1,5.2931976E1,0E0,0E0,0E0],"parents":[2147483647,0,0,2,2,3,3],"right_children":[2,-1,4,6,-1,-1,-1],"split_conditions":[-1.18228485E2,-6.286965E-2,-1.17070564E2,9E0,-5.264711E-2,2.090401E-2,-5.2263778E-2],"split_indices":[1,0,1,2,0,0,0],"split_type":[0,0,0,0,0,0,0],"sum_hessian":[3.1504025E2,2.5496943E1,2.895433E2,2.55037E2,3.4506313E1,2.2829219E2,2.6744804E1],"tree_param":{"num_deleted":"0","num_feature":"3","num_nodes":"7","size_leaf_vector":"1"}},{"base_weights":[-1.2436705E-2,-6.0459893E-2,1.0029105E-1,-6.33679E-2,2.0945626E-1,1.7150609E-2,-5.591181E-2],"categories":[],"categories_nodes":[],"categories_segments":[],"categories_sizes":[],"default_left":[0,0,0,0,0,0,0],"id":36,"left_children":[1,-1,3,-1,5,-1,-1],"loss_changes":[4.2160618E1,0E0,4.292224E1,0E0,4.7453632E1,0E0,0E0],"parents":[2147483647,0,0,2,2,4,4],"right_children":[2,-1,4,-1,6,-1,-1],"split_conditions":[4.723794E1,-6.0459893E-2,-1.18228485E2,-6.33679E-2,-1.17048416E2,1.7150609E-2,-5.591181E-2],"split_indices":[0,0,1,0,1,0,0],"split_type":[0,0,0,0,0,0,0],"sum_hessian":[3.1061447E2,2.5902016E1,2.8471243E2,2.026152E1,2.6445093E2,2.4095438E2,2.3496553E1],"tree_param":{"num_deleted":"0","num_feature":"3","num_nodes":"7","size_leaf_vector":"1"}},{"base_weights":[-1.2699291E-2,-5.9786778E-2,9.5541656E-2,-6.235779E-2,1.9998775E-1,2.0053778E-2,-3.4037016E-2],"categories":[],"categories_nodes":[],"categories_segments":[],"categories_sizes":[],"default_left":[0,0,0,0,0,0,0],"id":37,"left_children":[1,-1,3,-1,5,-1,-1],"loss_changes":[3.9597504E1,0E0,3.9995434E1,0E0,4.699684E1,0E0,0E0],"parents":[2147483647,0,0,2,2,4,4],"right_children":[2,-1,4,-1,6,-1,-1],"split_conditions":[4.723794E1,-5.9786778E-2,-1.18228485E2,-6.235779E-2,8E0,2.0053778E-2,-3.4037016E-2],"split_indices":[0,0,1,0,2,0,0],"split_type":[0,0,0,0,0,0,0],"sum_hessian":[3.0733536E2,2.4920115E1,2.8241525E2,1.95934E1,2.6282184E2,2.1441194E2,4.8409916E1],"tree_param":{"num_deleted":"0","num_feature":"3","num_nodes":"7","size_leaf_vector":"1"}},{"base_weights":[-1.2809582E-2,1.0411403E-1,-5.5019397E-2,-5.5978935E-2,2.3622325E-1,1.91792E-2,-5.187982E-2],"categories":[],"categories_nodes":[],"categories_segments":[],"categories_sizes":[],"default_left":[0,0,0,0,0,0,0],"id":38,"left_children":[1,3,-1,-1,5,-1,-1],"loss_changes":[3.8912292E1,4.4947212E1,0E0,0E0,4.7380447E1,0E0,0E0],"parents":[2147483647,0,0,1,1,4,4],"right_children":[2,4,-1,-1,6,-1,-1],"split_conditions":[-1.17048416E2,-1.1817105E2,-5.5019397E-2,-5.5978935E-2,9E0,1.91792E-2,-5.187982E-2],"split_indices":[1,1,0,0,2,0,0],"split_type":[0,0,0,0,0,0,0],"sum_hessian":[3.041009E2,2.7539764E2,2.8703241E1,2.6106392E1,2.4929126E2,2.240689E2,2.5222359E1],"tree_param":{"num_deleted":"0","num_feature":"3","num_nodes":"7","size_leaf_vector":"1"}},{"base_weights":[-1.306768E-2,-9.16039E-1,1.2335441E-1,-5.915008E-2,-2.4342254E-2,3.6482888E-1,-4.6851254E-1,3.100018E-2,-3.281693E-2,1.0011433E-5,-7.000474E-2],"categories":[],"categories_nodes":[],"categories_segments":[],"categories_sizes":[],"default_left":[0,0,0,0,0,0,0,0,0,0,0],"id":39,"left_children":[1,3,5,-1,-1,7,9,-1,-1,-1,-1],"loss_changes":[3.7173912E1,3.9621162E0,3.765172E1,0E0,0E0,4.908777E1,3.337245E1,0E0,0E0,0E0,0E0],"parents":[2147483647,0,0,1,1,2,2,5,5,6,6],"right_children":[2,4,6,-1,-1,8,10,-1,-1,-1,-1],"split_conditions":[4.7412598E1,4.720486E1,4.8045006E1,-5.915008E-2,-2.4342254E-2,8E0,-1.1765987E2,3.100018E-2,-3.281693E-2,1.0011433E-5,-7.000474E-2],"split_indices":[0,0,0,0,0,2,1,0,0,0,0],"split_type":[0,0,0,0,0,0,0,0,0,0,0],"sum_hessian":[2.9985516E2,3.8606415E1,2.6124875E2,2.2718786E1,1.5887628E1,1.8582004E2,7.54287E1,1.48984E2,3.6836056E1,5.0846016E1,2.458269E1],"tree_param":{"num_deleted":"0","num_feature":"3","num_nodes":"11","size_leaf_vector":"1"}},{"base_weights":[-1.320789E-2,9.7399E-2,-5.460539E-2,-5.973633E-2,2.166389E-1,1.7651368E-2,-5.146795E-2],"categories":[],"categories_nodes":[],"categories_segments":[],"categories_sizes":[],"default_left":[0,0,0,0,0,0,0],"id":40,"left_children":[1,3,-1,-1,5,-1,-1],"loss_changes":[3.5519615E1,4.187113E1,0E0,0E0,4.252721E1,0E0,0E0],"parents":[2147483647,0,0,1,1,4,4],"right_children":[2,4,-1,-1,6,-1,-1],"split_conditions":[-1.17048416E2,-1.18228485E2,-5.460539E-2,-5.973633E-2,9E0,1.7651368E-2,-5.146795E-2],"split_indices":[1,1,0,0,2,0,0],"split_type":[0,0,0,0,0,0,0],"sum_hessian":[2.95758E2,2.6908194E2,2.6676075E1,2.1971498E1,2.4711043E2,2.2337608E2,2.3734346E1],"tree_param":{"num_deleted":"0","num_feature":"3","num_nodes":"7","size_leaf_vector":"1"}},{"base_weights":[-1.347072E-2,-5.9027005E-2,8.7714404E-2,-5.994488E-2,1.8291831E-1,1.5020549E-2,-5.4628707E-2],"categories":[],"categories_nodes":[],"categories_segments":[],"categories_sizes":[],"default_left":[0,0,0,0,0,0,0],"id":41,"left_children":[1,-1,3,-1,5,-1,-1],"loss_changes":[3.46816E1,0E0,3.3338318E1,0E0,3.8186016E1,0E0,0E0],"parents":[2147483647,0,0,2,2,4,4],"right_children":[2,-1,4,-1,6,-1,-1],"split_conditions":[4.723794E1,-5.9027005E-2,-1.18228485E2,-5.994488E-2,-1.17048416E2,1.5020549E-2,-5.4628707E-2],"split_indices":[0,0,1,0,1,0,0],"split_type":[0,0,0,0,0,0,0],"sum_hessian":[2.9181082E2,2.2430481E1,2.6938034E2,1.7760954E1,2.5161938E2,2.310963E2,2.0523085E1],"tree_param":{"num_deleted":"0","num_feature":"3","num_nodes":"7","size_leaf_vector":"1"}},{"base_weights":[-1.3690803E-2,-5.840387E-2,8.3480634E-2,1.916464E-1,-5.1276553E-2,2.1861628E-2,-2.0968208E-2],"categories":[],"categories_nodes":[],"categories_segments":[],"categories_sizes":[],"default_left":[0,0,0,0,0,0,0],"id":42,"left_children":[1,-1,3,5,-1,-1,-1],"loss_changes":[3.2608177E1,0E0,3.237578E1,3.6986015E1,0E0,0E0,0E0],"parents":[2147483647,0,0,2,2,3,3],"right_children":[2,-1,4,6,-1,-1,-1],"split_conditions":[4.723794E1,-5.840387E-2,9E0,4.8045006E1,-5.1276553E-2,2.1861628E-2,-2.0968208E-2],"split_indices":[0,0,2,0,0,0,0],"split_type":[0,0,0,0,0,0,0],"sum_hessian":[2.8882507E2,2.156883E1,2.6725626E2,2.4425992E2,2.2996328E1,1.744335E2,6.9826416E1],"tree_param":{"num_deleted":"0","num_feature":"3","num_nodes":"7","size_leaf_vector":"1"}},{"base_weights":[-1.3704505E-2,8.874377E-2,-5.39006E-2,-5.8407564E-2,1.9834112E-1,1.6249476E-2,-5.101141E-2],"categories":[],"categories_nodes":[],"categories_segments":[],"categories_sizes":[],"default_left":[0,0,0,0,0,0,0],"id":43,"left_children":[1,3,-1,-1,5,-1,-1],"loss_changes":[3.1275599E1,3.629165E1,0E0,0E0,3.7622826E1,0E0,0E0],"parents":[2147483647,0,0,1,1,4,4],"right_children":[2,4,-1,-1,6,-1,-1],"split_conditions":[-1.17048416E2,-1.18228485E2,-5.39006E-2,-5.8407564E-2,9E0,1.6249476E-2,-5.101141E-2],"split_indices":[1,1,0,0,2,0,0],"split_type":[0,0,0,0,0,0,0],"sum_hessian":[2.8495877E2,2.6077377E2,2.4184986E1,2.0140295E1,2.4063348E2,2.1864279E2,2.1990692E1],"tree_param":{"num_deleted":"0","num_feature":"3","num_nodes":"7","size_leaf_vector":"1"}},{"base_weights":[-1.3945358E-2,-8.8123655E-1,1.1175172E-1,-5.7762075E-2,-2.383973E-2,3.7304232E-1,-3.5548365E-1,3.1259768E-2,-3.3973344E-2,7.5018354E-4,-4.35314E-2],"categories":[],"categories_nodes":[],"categories_segments":[],"categories_sizes":[],"default_left":[0,0,0,0,0,0,0,0,0,0,0],"id":44,"left_children":[1,3,5,-1,-1,7,9,-1,-1,-1,-1],"loss_changes":[3.0873432E1,3.4217281E0,3.034242E1,0E0,0E0,4.2672436E1,1.704908E1,0E0,0E0,0E0,0E0],"parents":[2147483647,0,0,1,1,2,2,5,5,6,6],"right_children":[2,4,6,-1,-1,8,10,-1,-1,-1,-1],"split_conditions":[4.7412598E1,4.720486E1,4.7918175E1,-5.7762075E-2,-2.383973E-2,8E0,-1.1765987E2,3.1259768E-2,-3.3973344E-2,7.5018354E-4,-4.35314E-2],"split_indices":[0,0,0,0,0,2,1,0,0,0,0],"split_type":[0,0,0,0,0,0,0,0,0,0,0],"sum_hessian":[2.8129767E2,3.484709E1,2.4645056E2,1.9666723E1,1.5180368E1,1.5818875E2,8.826181E1,1.2794302E2,3.0245728E1,5.1903873E1,3.6357937E1],"tree_param":{"num_deleted":"0","num_feature":"3","num_nodes":"11","size_leaf_vector":"1"}},{"base_weights":[-1.3880969E-2,-5.592075E-2,7.937957E-2,-5.8687042E-2,1.694526E-1,1.4157829E-2,-5.060283E-2],"categories":[],"categories_nodes":[],"categories_segments":[],"categories_sizes":[],"default_left":[0,0,0,0,0,0,0],"id":45,"left_children":[1,-1,3,-1,5,-1,-1],"loss_changes":[2.8825787E1,0E0,2.9341093E1,0E0,3.2763462E1,0E0,0E0],"parents":[2147483647,0,0,2,2,4,4],"right_children":[2,-1,4,-1,6,-1,-1],"split_conditions":[4.7264458E1,-5.592075E-2,-1.18228485E2,-5.8687042E-2,9E0,1.4157829E-2,-5.060283E-2],"split_indices":[0,0,1,0,2,0,0],"split_type":[0,0,0,0,0,0,0],"sum_hessian":[2.7797452E2,2.0787287E1,2.5718723E2,1.6439898E1,2.4074733E2,2.2030623E2,2.0441093E1],"tree_param":{"num_deleted":"0","num_feature":"3","num_nodes":"7","size_leaf_vector":"1"}},{"base_weights":[-1.408275E-2,8.4463514E-2,-5.3582963E-2,-5.26247E-2,1.952949E-1,1.5504536E-2,-5.033642E-2],"categories":[],"categories_nodes":[],"categories_segments":[],"categories_sizes":[],"default_left":[0,0,0,0,0,0,0],"id":46,"left_children":[1,3,-1,-1,5,-1,-1],"loss_changes":[2.8854877E1,3.2136303E1,0E0,0E0,3.228846E1,0E0,0E0],"parents":[2147483647,0,0,1,1,4,4],"right_children":[2,4,-1,-1,6,-1,-1],"split_conditions":[-1.17048416E2,-1.1817105E2,-5.3582963E-2,-5.26247E-2,9E0,1.5504536E-2,-5.033642E-2],"split_indices":[1,1,0,0,2,0,0],"split_type":[0,0,0,0,0,0,0],"sum_hessian":[2.74996E2,2.5239743E2,2.2598564E1,2.166384E1,2.307336E2,2.1129636E2,1.9437235E1],"tree_param":{"num_deleted":"0","num_feature":"3","num_nodes":"7","size_leaf_vector":"1"}},{"base_weights":[-1.4281604E-2,8.055311E-2,-5.320781E-2,-5.667409E-2,1.787569E-1,1.4334423E-2,-5.0107945E-2],"categories":[],"categories_nodes":[],"categories_segments":[],"categories_sizes":[],"default_left":[0,0,0,0,0,0,0],"id":47,"left_children":[1,3,-1,-1,5,-1,-1],"loss_changes":[2.7223198E1,3.0116886E1,0E0,0E0,2.9984657E1,0E0,0E0],"parents":[2147483647,0,0,1,1,4,4],"right_children":[2,4,-1,-1,6,-1,-1],"split_conditions":[-1.17048416E2,-1.18228485E2,-5.320781E-2,-5.667409E-2,9E0,1.4334423E-2,-5.0107945E-2],"split_indices":[1,1,0,0,2,0,0],"split_type":[0,0,0,0,0,0,0],"sum_hessian":[2.7156165E2,2.4991058E2,2.1651041E1,1.7913578E1,2.3199701E2,2.1326277E2,1.8734238E1],"tree_param":{"num_deleted":"0","num_feature":"3","num_nodes":"7","size_leaf_vector":"1"}},{"base_weights":[-1.4490483E-2,-5.7304945E-2,7.3752604E-2,1.5897712E-1,-5.8160722E-2,1.5866755E-2,-3.0746896E-2],"categories":[],"categories_nodes":[],"categories_segments":[],"categories_sizes":[],"default_left":[0,0,0,0,0,0,0],"id":48,"left_children":[1,-1,3,5,-1,-1,-1],"loss_changes":[2.6976854E1,0E0,2.6620794E1,2.9054947E1,0E0,0E0,0E0],"parents":[2147483647,0,0,2,2,3,3],"right_children":[2,-1,4,6,-1,-1,-1],"split_conditions":[4.723794E1,-5.7304945E-2,4.890521E1,8E0,-5.8160722E-2,1.5866755E-2,-3.0746896E-2],"split_indices":[0,0,0,2,0,0,0],"split_type":[0,0,0,0,0,0,0],"sum_hessian":[2.6830942E2,1.854209E1,2.4976732E2,2.3448337E2,1.5283949E1,1.9514325E2,3.9340122E1],"tree_param":{"num_deleted":"0","num_feature":"3","num_nodes":"7","size_leaf_vector":"1"}},{"base_weights":[-1.4490229E-2,-8.464599E-1,1.0086827E-1,-5.6417562E-2,-2.4398386E-2,3.1907427E-1,-4.225074E-1,2.6458496E-2,-2.9016493E-2,1.996482E-3,-7.265989E-2],"categories":[],"categories_nodes":[],"categories_segments":[],"categories_sizes":[],"default_left":[0,0,0,0,0,0,0,0,0,0,0],"id":49,"left_children":[1,3,5,-1,-1,7,9,-1,-1,-1,-1],"loss_changes":[2.5715914E1,2.7464905E0,2.7021614E1,0E0,0E0,3.1811562E1,3.3280853E1,0E0,0E0,0E0,0E0],"parents":[2147483647,0,0,1,1,2,2,5,5,6,6],"right_children":[2,4,6,-1,-1,8,10,-1,-1,-1,-1],"split_conditions":[4.7412598E1,4.7156044E1,4.8054287E1,-5.6417562E-2,-2.4398386E-2,8E0,-1.1765987E2,2.6458496E-2,-2.9016493E-2,1.996482E-3,-7.265989E-2],"split_indices":[0,0,0,0,0,2,1,0,0,0,0],"split_type":[0,0,0,0,0,0,0,0,0,0,0],"sum_hessian":[2.6605487E2,3.1626411E1,2.3442847E2,1.6502552E1,1.5123858E1,1.6572478E2,6.870369E1,1.3467671E2,3.1048069E1,4.8088993E1,2.0614698E1],"tree_param":{"num_deleted":"0","num_feature":"3","num_nodes":"11","size_leaf_vector":"1"}},{"base_weights":[-1.4600975E-2,7.5597756E-2,-5.2952718E-2,-5.633072E-2,1.7102103E-1,1.3511642E-2,-4.95961E-2],"categories":[],"categories_nodes":[],"categories_segments":[],"categories_sizes":[],"default_left":[0,0,0,0,0,0,0],"id":50,"left_children":[1,3,-1,-1,5,-1,-1],"loss_changes":[2.4937006E1,2.8162247E1,0E0,0E0,2.6429789E1,0E0,0E0],"parents":[2147483647,0,0,1,1,4,4],"right_children":[2,4,-1,-1,6,-1,-1],"split_conditions":[-1.17048416E2,-1.18228485E2,-5.2952718E-2,-5.633072E-2,9E0,1.3511642E-2,-4.95961E-2],"split_indices":[1,1,0,0,2,0,0],"split_type":[0,0,0,0,0,0,0],"sum_hessian":[2.628507E2,2.4280937E2,2.0041336E1,1.7060627E1,2.2574875E2,2.0871104E2,1.7037708E1],"tree_param":{"num_deleted":"0","num_feature":"3","num_nodes":"7","size_leaf_vector":"1"}},{"base_weights":[-1.4797884E-2,-5.6382395E-2,6.7376465E-2,1.5192649E-1,-5.2801814E-2,-5.063596E-2,1.2562528E-2],"categories":[],"categories_nodes":[],"categories_segments":[],"categories_sizes":[],"default_left":[0,0,0,0,0,0,0],"id":51,"left_children":[1,-1,3,5,-1,-1,-1],"loss_changes":[2.3928175E1,0E0,2.3321177E1,2.6587698E1,0E0,0E0,0E0],"parents":[2147483647,0,0,2,2,3,3],"right_children":[2,-1,4,6,-1,-1,-1],"split_conditions":[4.723794E1,-5.6382395E-2,-1.17048416E2,-1.1817105E2,-5.2801814E-2,-5.063596E-2,1.2562528E-2],"split_indices":[0,0,1,1,0,0,0],"split_type":[0,0,0,0,0,0,0],"sum_hessian":[2.598288E2,1.6991947E1,2.4283685E2,2.26644E2,1.6192863E1,1.7087284E1,2.0955672E2],"tree_param":{"num_deleted":"0","num_feature":"3","num_nodes":"7","size_leaf_vector":"1"}},{"base_weights":[-1.4942896E-2,-5.5830836E-2,6.4007275E-2,1.4487123E-1,-5.2393712E-2,-4.9766477E-2,1.1974746E-2],"categories":[],"categories_nodes":[],"categories_segments":[],"categories_sizes":[],"default_left":[0,0,0,0,0,0,0],"id":52,"left_children":[1,-1,3,5,-1,-1,-1],"loss_changes":[2.2539509E1,0E0,2.1909592E1,2.4671621E1,0E0,0E0,0E0],"parents":[2147483647,0,0,2,2,3,3],"right_children":[2,-1,4,6,-1,-1,-1],"split_conditions":[4.723794E1,-5.5830836E-2,-1.17048416E2,-1.1817105E2,-5.2393712E-2,-4.9766477E-2,1.1974746E-2],"split_indices":[0,0,1,1,0,0,0],"split_type":[0,0,0,0,0,0,0],"sum_hessian":[2.5732062E2,1.6328518E1,2.409921E2,2.2546442E2,1.5527676E1,1.654775E1,2.0891666E2],"tree_param":{"num_deleted":"0","num_feature":"3","num_nodes":"7","size_leaf_vector":"1"}},{"base_weights":[-1.5073197E-2,-4.036769E-2,8.992201E-2,2.9856336E-1,-4.0699103E-1,2.528792E-2,-2.86492E-2,1.9015089E-3,-7.299372E-2],"categories":[],"categories_nodes":[],"categories_segments":[],"categories_sizes":[],"default_left":[0,0,0,0,0,0,0,0,0],"id":53,"left_children":[1,-1,3,5,7,-1,-1,-1,-1],"loss_changes":[2.1360214E1,0E0,2.3641563E1,2.9246075E1,3.1686977E1,0E0,0E0,0E0,0E0],"parents":[2147483647,0,0,2,2,3,3,4,4],"right_children":[2,-1,4,6,8,-1,-1,-1,-1],"split_conditions":[4.7412598E1,-4.036769E-2,4.8054287E1,8E0,-1.1765987E2,2.528792E-2,-2.86492E-2,1.9015089E-3,-7.299372E-2],"split_indices":[0,0,0,2,1,0,0,0,0],"split_type":[0,0,0,0,0,0,0,0,0],"sum_hessian":[2.5490485E2,2.9045063E1,2.2585979E2,1.5935132E2,6.650847E1,1.2908366E2,3.0267664E1,4.7426594E1,1.9081873E1],"tree_param":{"num_deleted":"0","num_feature":"3","num_nodes":"9","size_leaf_vector":"1"}},{"base_weights":[-1.49842845E-2,6.376328E-2,-5.1909473E-2,-2.6700768E-1,3.721044E-1,-5.486673E-2,-6.425906E-3,3.1371877E-2,-3.3395547E-2],"categories":[],"categories_nodes":[],"categories_segments":[],"categories_sizes":[],"default_left":[0,0,0,0,0,0,0,0,0],"id":54,"left_children":[1,3,-1,5,7,-1,-1,-1,-1],"loss_changes":[2.0457153E1,2.4161484E1,0E0,1.3014602E1,3.2954453E1,0E0,0E0,0E0,0E0],"parents":[2147483647,0,0,1,1,3,3,4,4],"right_children":[2,4,-1,6,8,-1,-1,-1,-1],"split_conditions":[-1.17048416E2,-1.1735296E2,-5.1909473E-2,-1.18228485E2,8E0,-5.486673E-2,-6.425906E-3,3.1371877E-2,-3.3395547E-2],"split_indices":[1,1,0,1,2,0,0,0,0],"split_type":[0,0,0,0,0,0,0,0,0],"sum_hessian":[2.520683E2,2.349257E2,1.7142591E1,1.1340513E2,1.2152058E2,1.5221232E1,9.81839E1,9.7885506E1,2.3635069E1],"tree_param":{"num_deleted":"0","num_feature":"3","num_nodes":"9","size_leaf_vector":"1"}},{"base_weights":[-1.4933303E-2,-5.50659E-2,5.9342716E-2,1.3986441E-1,-4.9241498E-2,1.7094187E-2,-1.7778447E-2],"categories":[],"categories_nodes":[],"categories_segments":[],"categories_sizes":[],"default_left":[0,0,0,0,0,0,0],"id":55,"left_children":[1,-1,3,5,-1,-1,-1],"loss_changes":[2.0211966E1,0E0,1.9866201E1,2.2012585E1,0E0,0E0,0E0],"parents":[2147483647,0,0,2,2,3,3],"right_children":[2,-1,4,6,-1,-1,-1],"split_conditions":[4.723794E1,-5.50659E-2,9E0,4.8054287E1,-4.9241498E-2,1.7094187E-2,-1.7778447E-2],"split_indices":[0,0,2,0,0,0,0],"split_type":[0,0,0,0,0,0,0],"sum_hessian":[2.4867194E2,1.5028784E1,2.3364314E2,2.1771968E2,1.5923467E1,1.5487666E2,6.284302E1],"tree_param":{"num_deleted":"0","num_feature":"3","num_nodes":"7","size_leaf_vector":"1"}},{"base_weights":[-1.4885371E-2,6.1572608E-2,-5.1644243E-2,-4.8800226E-2,1.5055281E-1,1.2085951E-2,-4.8982576E-2],"categories":[],"categories_nodes":[],"categories_segments":[],"categories_sizes":[],"default_left":[0,0,0,0,0,0,0],"id":56,"left_children":[1,3,-1,-1,5,-1,-1],"loss_changes":[1.927865E1,2.1433964E1,0E0,0E0,2.2206656E1,0E0,0E0],"parents":[2147483647,0,0,1,1,4,4],"right_children":[2,4,-1,-1,6,-1,-1],"split_conditions":[-1.17048416E2,-1.1817105E2,-5.1644243E-2,-4.8800226E-2,9E0,1.2085951E-2,-4.8982576E-2],"split_indices":[1,1,0,0,2,0,0],"split_type":[0,0,0,0,0,0,0],"sum_hessian":[2.4587166E2,2.2956914E2,1.6302528E1,1.7344954E1,2.1222418E2,1.9711067E2,1.51135E1],"tree_param":{"num_deleted":"0","num_feature":"3","num_nodes":"7","size_leaf_vector":"1"}},{"base_weights":[-1.5035519E-2,-5.2821975E-2,5.9280954E-2,1.367166E-1,-4.6145696E-2,1.3638196E-2,-2.693888E-2],"categories":[],"categories_nodes":[],"categories_segments":[],"categories_sizes":[],"default_left":[0,0,0,0,0,0,0],"id":57,"left_children":[1,-1,3,5,-1,-1,-1],"loss_changes":[1.896603E1,0E0,1.7537756E1,1.9727884E1,0E0,0E0,0E0],"parents":[2147483647,0,0,2,2,3,3],"right_children":[2,-1,4,6,-1,-1,-1],"split_conditions":[4.7264458E1,-5.2821975E-2,-1.17070564E2,8E0,-4.6145696E-2,1.3638196E-2,-2.693888E-2],"split_indices":[0,0,1,2,0,0,0],"split_type":[0,0,0,0,0,0,0],"sum_hessian":[2.4325061E2,1.53223E1,2.2792831E2,2.1206967E2,1.5858641E1,1.7701443E2,3.5055233E1],"tree_param":{"num_deleted":"0","num_feature":"3","num_nodes":"7","size_leaf_vector":"1"}},{"base_weights":[-1.4977572E-2,-3.8367007E-2,8.173796E-2,2.7594432E-1,-3.706203E-1,-4.3104935E-2,2.0862168E-2,3.098488E-3,-7.2617225E-2],"categories":[],"categories_nodes":[],"categories_segments":[],"categories_sizes":[],"default_left":[0,0,0,0,0,0,0,0,0],"id":58,"left_children":[1,-1,3,5,7,-1,-1,-1,-1],"loss_changes":[1.7683071E1,0E0,1.9031895E1,2.4693655E1,3.0575623E1,0E0,0E0,0E0,0E0],"parents":[2147483647,0,0,2,2,3,3,4,4],"right_children":[2,-1,4,6,8,-1,-1,-1,-1],"split_conditions":[4.7412598E1,-3.8367007E-2,4.8054287E1,-1.1757194E2,-1.1765987E2,-4.3104935E-2,2.0862168E-2,3.098488E-3,-7.2617225E-2],"split_indices":[0,0,0,1,1,0,0,0,0],"split_type":[0,0,0,0,0,0,0,0,0],"sum_hessian":[2.4115372E2,2.6679153E1,2.1447456E2,1.5032643E2,6.4148125E1,1.6039637E1,1.342868E2,4.6496517E1,1.7651611E1],"tree_param":{"num_deleted":"0","num_feature":"3","num_nodes":"9","size_leaf_vector":"1"}},{"base_weights":[-1.4950153E-2,-4.778465E-2,5.9148088E-2,1.4319237E-1,-4.849465E-2,1.3807057E-2,-2.4692371E-2],"categories":[],"categories_nodes":[],"categories_segments":[],"categories_sizes":[],"default_left":[0,0,0,0,0,0,0],"id":59,"left_children":[1,-1,3,5,-1,-1,-1],"loss_changes":[1.6794455E1,0E0,1.9470581E1,1.7712038E1,0E0,0E0,0E0],"parents":[2147483647,0,0,2,2,3,3],"right_children":[2,-1,4,6,-1,-1,-1],"split_conditions":[-1.1817105E2,-4.778465E-2,-1.17058266E2,8E0,-4.849465E-2,1.3807057E-2,-2.4692371E-2],"split_indices":[1,0,1,2,0,0,0],"split_type":[0,0,0,0,0,0,0],"sum_hessian":[2.3911696E2,1.6590334E1,2.2252663E2,2.0652045E2,1.6006178E1,1.7133064E2,3.51898E1],"tree_param":{"num_deleted":"0","num_feature":"3","num_nodes":"7","size_leaf_vector":"1"}},{"base_weights":[-1.4893315E-2,-4.728273E-2,5.8230627E-2,1.32949E-1,-4.3971762E-2,-6.9835144E-3,2.188628E-2],"categories":[],"categories_nodes":[],"categories_segments":[],"categories_sizes":[],"default_left":[0,0,0,0,0,0,0],"id":60,"left_children":[1,-1,3,5,-1,-1,-1],"loss_changes":[1.6248293E1,0E0,1.5637783E1,1.7181623E1,0E0,0E0,0E0],"parents":[2147483647,0,0,2,2,3,3],"right_children":[2,-1,4,6,-1,-1,-1],"split_conditions":[4.728265E1,-4.728273E-2,-1.1707806E2,-1.17321945E2,-4.3971762E-2,-6.9835144E-3,2.188628E-2],"split_indices":[0,0,1,1,0,0,0],"split_type":[0,0,0,0,0,0,0],"sum_hessian":[2.3692249E2,1.6388502E1,2.20534E2,2.0505249E2,1.5481495E1,1.0852226E2,9.653023E1],"tree_param":{"num_deleted":"0","num_feature":"3","num_nodes":"7","size_leaf_vector":"1"}},{"base_weights":[-1.463117E-2,-4.6897598E-2,5.63552E-2,1.3691494E-1,-4.4726033E-2,1.3455375E-2,-2.53136E-2],"categories":[],"categories_nodes":[],"categories_segments":[],"categories_sizes":[],"default_left":[0,0,0,0,0,0,0],"id":61,"left_children":[1,-1,3,5,-1,-1,-1],"loss_changes":[1.5516917E1,0E0,1.6977743E1,1.7457228E1,0E0,0E0,0E0],"parents":[2147483647,0,0,2,2,3,3],"right_children":[2,-1,4,6,-1,-1,-1],"split_conditions":[-1.1817105E2,-4.6897598E-2,-1.17070564E2,8E0,-4.4726033E-2,1.3455375E-2,-2.53136E-2],"split_indices":[1,0,1,2,0,0,0],"split_type":[0,0,0,0,0,0,0],"sum_hessian":[2.3493694E2,1.5900877E1,2.1903606E2,2.0271751E2,1.6318542E1,1.6863914E2,3.407837E1],"tree_param":{"num_deleted":"0","num_feature":"3","num_nodes":"7","size_leaf_vector":"1"}},{"base_weights":[-1.4561831E-2,-4.652343E-2,5.615929E-2,2.2150648E-1,-3.499122E-1,-4.526188E-2,1.7543118E-2,3.3543676E-3,-7.2194085E-2],"categories":[],"categories_nodes":[],"categories_segments":[],"categories_sizes":[],"default_left":[0,0,0,0,0,0,0,0,0],"id":62,"left_children":[1,-1,3,5,7,-1,-1,-1,-1],"loss_changes":[1.5201E1,0E0,1.4718007E1,2.299166E1,2.905695E1,0E0,0E0,0E0,0E0],"parents":[2147483647,0,0,2,2,3,3,4,4],"right_children":[2,-1,4,6,8,-1,-1,-1,-1],"split_conditions":[4.728265E1,-4.652343E-2,4.8054287E1,-1.17794754E2,-1.1765987E2,-4.526188E-2,1.7543118E-2,3.3543676E-3,-7.2194085E-2],"split_indices":[0,0,0,1,1,0,0,0,0],"split_type":[0,0,0,0,0,0,0,0,0],"sum_hessian":[2.3287094E2,1.5820704E1,2.1705025E2,1.5456702E2,6.2483227E1,1.5299953E1,1.3926706E2,4.5918625E1,1.6564598E1],"tree_param":{"num_deleted":"0","num_feature":"3","num_nodes":"9","size_leaf_vector":"1"}},{"base_weights":[-1.4652798E-2,-4.5588624E-2,5.322277E-2,2.1177743E-1,-3.3575538E-1,-4.3459438E-2,1.6791893E-2,3.1864473E-3,-7.0576824E-2],"categories":[],"categories_nodes":[],"categories_segments":[],"categories_sizes":[],"default_left":[0,0,0,0,0,0,0,0,0],"id":63,"left_children":[1,-1,3,5,7,-1,-1,-1,-1],"loss_changes":[1.4172468E1,0E0,1.3428455E1,2.1007812E1,2.7209267E1,0E0,0E0,0E0,0E0],"parents":[2147483647,0,0,2,2,3,3,4,4],"right_children":[2,-1,4,6,8,-1,-1,-1,-1],"split_conditions":[4.728265E1,-4.5588624E-2,4.8054287E1,-1.17794754E2,-1.1765987E2,-4.3459438E-2,1.6791893E-2,3.1864473E-3,-7.0576824E-2],"split_indices":[0,0,0,1,1,0,0,0,0],"split_type":[0,0,0,0,0,0,0,0,0],"sum_hessian":[2.3094878E2,1.5369904E1,2.1557887E2,1.5347513E2,6.210374E1,1.518229E1,1.3829285E2,4.5972797E1,1.6130941E1],"tree_param":{"num_deleted":"0","num_feature":"3","num_nodes":"9","size_leaf_vector":"1"}},{"base_weights":[-1.4726152E-2,-3.45232E-2,6.873545E-2,2.3857178E-1,-3.2221335E-1,2.1342395E-2,-2.5521947E-2,3.027122E-3,-6.903333E-2],"categories":[],"categories_nodes":[],"categories_segments":[],"categories_sizes":[],"default_left":[0,0,0,0,0,0,0,0,0],"id":64,"left_children":[1,-1,3,5,7,-1,-1,-1,-1],"loss_changes":[1.3024207E1,0E0,1.3735216E1,2.0522308E1,2.5495113E1,0E0,0E0,0E0,0E0],"parents":[2147483647,0,0,2,2,3,3,4,4],"right_children":[2,-1,4,6,8,-1,-1,-1,-1],"split_conditions":[4.7412598E1,-3.45232E-2,4.8054287E1,8E0,-1.1765987E2,2.1342395E-2,-2.5521947E-2,3.027122E-3,-6.903333E-2],"split_indices":[0,0,0,2,1,0,0,0,0],"split_type":[0,0,0,0,0,0,0,0,0],"sum_hessian":[2.2909167E2,2.4385366E1,2.047063E2,1.4298178E2,6.1724518E1,1.14604256E2,2.8377535E1,4.6024155E1,1.5700362E1],"tree_param":{"num_deleted":"0","num_feature":"3","num_nodes":"9","size_leaf_vector":"1"}},{"base_weights":[-1.4625121E-2,-3.332839E-2,6.5528214E-2,2.5749066E-1,-2.5745687E-1,2.2948867E-2,-2.71287E-2,1.06712375E-2,-3.3801254E-2],"categories":[],"categories_nodes":[],"categories_segments":[],"categories_sizes":[],"default_left":[0,0,0,0,0,0,0,0,0],"id":65,"left_children":[1,-1,3,5,7,-1,-1,-1,-1],"loss_changes":[1.1952816E1,0E0,1.2705896E1,2.0941883E1,1.5221251E1,0E0,0E0,0E0,0E0],"parents":[2147483647,0,0,2,2,3,3,4,4],"right_children":[2,-1,4,6,8,-1,-1,-1,-1],"split_conditions":[4.7412598E1,-3.332839E-2,4.7918175E1,8E0,-1.17861374E2,2.2948867E-2,-2.71287E-2,1.06712375E-2,-3.3801254E-2],"split_indices":[0,0,0,2,1,0,0,0,0],"split_type":[0,0,0,0,0,0,0,0,0],"sum_hessian":[2.2690262E2,2.4041365E1,2.0286125E2,1.273657E2,7.549555E1,1.0208352E2,2.528218E1,3.5758263E1,3.9737293E1],"tree_param":{"num_deleted":"0","num_feature":"3","num_nodes":"9","size_leaf_vector":"1"}},{"base_weights":[-1.4264032E-2,-4.5630347E-2,5.3970814E-2,1.2839416E-1,-3.7554827E-2,1.2665773E-2,-2.305E-2],"categories":[],"categories_nodes":[],"categories_segments":[],"categories_sizes":[],"default_left":[0,0,0,0,0,0,0],"id":66,"left_children":[1,-1,3,5,-1,-1,-1],"loss_changes":[1.3905744E1,0E0,1.2740858E1,1.4402975E1,0E0,0E0,0E0],"parents":[2147483647,0,0,2,2,3,3],"right_children":[2,-1,4,6,-1,-1,-1],"split_conditions":[-1.1817105E2,-4.5630347E-2,-1.1707806E2,8E0,-3.7554827E-2,1.2665773E-2,-2.305E-2],"split_indices":[1,0,1,2,0,0,0],"split_type":[0,0,0,0,0,0,0],"sum_hessian":[2.2505019E2,1.5013685E1,2.1003651E2,1.9303241E2,1.7004095E1,1.597449E2,3.3287506E1],"tree_param":{"num_deleted":"0","num_feature":"3","num_nodes":"7","size_leaf_vector":"1"}},{"base_weights":[-1.4153127E-2,-3.766839E-2,5.222142E-2,1.2459835E-1,-3.6594447E-2,1.2495842E-2,-2.3203192E-2],"categories":[],"categories_nodes":[],"categories_segments":[],"categories_sizes":[],"default_left":[0,0,0,0,0,0,0],"id":67,"left_children":[1,-1,3,5,-1,-1,-1],"loss_changes":[1.1042719E1,0E0,1.1822795E1,1.414005E1,0E0,0E0,0E0],"parents":[2147483647,0,0,2,2,3,3],"right_children":[2,-1,4,6,-1,-1,-1],"split_conditions":[-1.1814067E2,-3.766839E-2,-1.1707806E2,8E0,-3.6594447E-2,1.2495842E-2,-2.3203192E-2],"split_indices":[1,0,1,2,0,0,0],"split_type":[0,0,0,0,0,0,0],"sum_hessian":[2.2326108E2,1.7542267E1,2.0571881E2,1.8910469E2,1.661412E1,1.5638733E2,3.271737E1],"tree_param":{"num_deleted":"0","num_feature":"3","num_nodes":"7","size_leaf_vector":"1"}},{"base_weights":[-1.3990887E-2,-3.2248452E-2,6.354865E-2,2.2488873E-1,-3.0115506E-1,-4.068756E-2,1.7884854E-2,2.805022E-3,-6.462624E-2],"categories":[],"categories_nodes":[],"categories_segments":[],"categories_sizes":[],"default_left":[0,0,0,0,0,0,0,0,0],"id":68,"left_children":[1,-1,3,5,7,-1,-1,-1,-1],"loss_changes":[1.093003E1,0E0,1.1783968E1,1.9412134E1,2.1853142E1,0E0,0E0,0E0,0E0],"parents":[2147483647,0,0,2,2,3,3,4,4],"right_children":[2,-1,4,6,8,-1,-1,-1,-1],"split_conditions":[4.7412598E1,-3.2248452E-2,4.8054287E1,-1.1757194E2,-1.17676254E2,-4.068756E-2,1.7884854E-2,2.805022E-3,-6.462624E-2],"split_indices":[0,0,0,1,1,0,0,0,0],"split_type":[0,0,0,0,0,0,0,0,0],"sum_hessian":[2.2156264E2,2.3446745E1,1.9811589E2,1.376186E2,6.049728E1,1.5020685E1,1.2259792E2,4.5164837E1,1.5332441E1],"tree_param":{"num_deleted":"0","num_feature":"3","num_nodes":"9","size_leaf_vector":"1"}},{"base_weights":[-1.3965205E-2,-3.1101525E-2,6.032264E-2,2.1504459E-1,-2.8899324E-1,1.9200467E-2,-2.1938594E-2,1.1690648E-2,-4.646395E-2],"categories":[],"categories_nodes":[],"categories_segments":[],"categories_sizes":[],"default_left":[0,0,0,0,0,0,0,0,0],"id":69,"left_children":[1,-1,3,5,7,-1,-1,-1,-1],"loss_changes":[1.0017161E1,0E0,1.075182E1,1.5374464E1,2.0683554E1,0E0,0E0,0E0,0E0],"parents":[2147483647,0,0,2,2,3,3,4,4],"right_children":[2,-1,4,6,8,-1,-1,-1,-1],"split_conditions":[4.7412598E1,-3.1101525E-2,4.8054287E1,8E0,-1.17861374E2,1.9200467E-2,-2.1938594E-2,1.1690648E-2,-4.646395E-2],"split_indices":[0,0,0,2,1,0,0,0,0],"split_type":[0,0,0,0,0,0,0,0,0],"sum_hessian":[2.1992603E2,2.3140638E1,1.9678539E2,1.3664557E2,6.0139828E1,1.0891222E2,2.7733345E1,3.345664E1,2.6683187E1],"tree_param":{"num_deleted":"0","num_feature":"3","num_nodes":"9","size_leaf_vector":"1"}},{"base_weights":[-1.3718398E-2,-3.6627192E-2,5.0460875E-2,1.1830091E-1,-3.507842E-2,1.1885321E-2,-2.1833345E-2],"categories":[],"categories_nodes":[],"categories_segments":[],"categories_sizes":[],"default_left":[0,0,0,0,0,0,0],"id":70,"left_children":[1,-1,3,5,-1,-1,-1],"loss_changes":[1.0144508E1,0E0,1.0392142E1,1.2442928E1,0E0,0E0,0E0],"parents":[2147483647,0,0,2,2,3,3],"right_children":[2,-1,4,6,-1,-1,-1],"split_conditions":[-1.1814067E2,-3.6627192E-2,-1.1707806E2,8E0,-3.507842E-2,1.1885321E-2,-2.1833345E-2],"split_indices":[1,0,1,2,0,0,0],"split_type":[0,0,0,0,0,0,0],"sum_hessian":[2.1809245E2,1.702244E1,2.0107E2,1.8520546E2,1.5864562E1,1.5288316E2,3.232229E1],"tree_param":{"num_deleted":"0","num_feature":"3","num_nodes":"7","size_leaf_vector":"1"}},{"base_weights":[-1.3558831E-2,-4.058014E-1,9.713619E-2,-3.820778E-2,-2.126705E-1,3.4276778E-1,-2.2616042E-1,8.225824E-3,-3.0424757E-2,2.7249694E-2,-2.1056443E-2,1.0536759E-2,-3.1386863E-2],"categories":[],"categories_nodes":[],"categories_segments":[],"categories_sizes":[],"default_left":[0,0,0,0,0,0,0,0,0,0,0,0,0],"id":71,"left_children":[1,3,5,-1,7,9,11,-1,-1,-1,-1,-1,-1],"loss_changes":[9.483661E0,3.164167E0,1.3612921E1,0E0,4.970194E0,1.5253321E1,1.3148956E1,0E0,0E0,0E0,0E0,0E0,0E0],"parents":[2147483647,0,0,1,1,2,2,4,4,5,5,6,6],"right_children":[2,4,6,-1,8,10,12,-1,-1,-1,-1,-1,-1],"split_conditions":[4.757526E1,-1.1765987E2,4.7918175E1,-3.820778E-2,-1.1734121E2,8E0,-1.17861374E2,8.225824E-3,-3.0424757E-2,2.7249694E-2,-2.1056443E-2,1.0536759E-2,-3.1386863E-2],"split_indices":[0,1,0,0,1,2,1,0,0,0,0,0,0],"split_type":[0,0,0,0,0,0,0,0,0,0,0,0,0],"sum_hessian":[2.1651254E2,4.7066982E1,1.6944556E2,1.5447493E1,3.1619492E1,9.625416E1,7.31914E1,1.6490154E1,1.5129337E1,7.6333084E1,1.9921072E1,3.5281796E1,3.7909607E1],"tree_param":{"num_deleted":"0","num_feature":"3","num_nodes":"13","size_leaf_vector":"1"}},{"base_weights":[-1.32928975E-2,-3.5753768E-2,4.8794862E-2,1.12730384E-1,-3.3703193E-2,1.1193294E-2,-2.015583E-2],"categories":[],"categories_nodes":[],"categories_segments":[],"categories_sizes":[],"default_left":[0,0,0,0,0,0,0],"id":72,"left_children":[1,-1,3,5,-1,-1,-1],"loss_changes":[9.4374895E0,0E0,9.281834E0,1.0630774E1,0E0,0E0,0E0],"parents":[2147483647,0,0,2,2,3,3],"right_children":[2,-1,4,6,-1,-1,-1],"split_conditions":[-1.1814067E2,-3.5753768E-2,-1.1707806E2,8E0,-3.3703193E-2,1.1193294E-2,-2.015583E-2],"split_indices":[1,0,1,2,0,0,0],"split_type":[0,0,0,0,0,0,0],"sum_hessian":[2.1479398E2,1.6603722E1,1.9819026E2,1.8286063E2,1.5329635E1,1.5091344E2,3.1947187E1],"tree_param":{"num_deleted":"0","num_feature":"3","num_nodes":"7","size_leaf_vector":"1"}},{"base_weights":[-1.3133559E-2,-3.4858756E-2,4.6372797E-2,1.075037E-1,-3.2765444E-2,-3.2508865E-2,9.075241E-3],"categories":[],"categories_nodes":[],"categories_segments":[],"categories_sizes":[],"default_left":[0,0,0,0,0,0,0],"id":73,"left_children":[1,-1,3,5,-1,-1,-1],"loss_changes":[8.7560625E0,0E0,8.567951E0,1.0383509E1,0E0,0E0,0E0],"parents":[2147483647,0,0,2,2,3,3],"right_children":[2,-1,4,6,-1,-1,-1],"split_conditions":[-1.1814067E2,-3.4858756E-2,-1.1707806E2,4.737962E1,-3.2765444E-2,-3.2508865E-2,9.075241E-3],"split_indices":[1,0,1,0,0,0,0],"split_type":[0,0,0,0,0,0,0],"sum_hessian":[2.1331694E2,1.6214214E1,1.9710272E2,1.8208607E2,1.501665E1,1.5508807E1,1.6657727E2],"tree_param":{"num_deleted":"0","num_feature":"3","num_nodes":"7","size_leaf_vector":"1"}},{"base_weights":[-1.3036194E-2,-3.80299E-1,9.045509E-2,-3.479535E-2,-9.956334E-3,3.2643119E-1,-2.1495403E-1,2.606745E-2,-1.9582994E-2,1.0579389E-2,-3.0451436E-2],"categories":[],"categories_nodes":[],"categories_segments":[],"categories_sizes":[],"default_left":[0,0,0,0,0,0,0,0,0,0,0],"id":74,"left_children":[1,3,5,-1,-1,7,9,-1,-1,-1,-1],"loss_changes":[8.132474E0,2.5506592E0,1.2107754E1,0E0,0E0,1.3448292E1,1.24676695E1,0E0,0E0,0E0,0E0],"parents":[2147483647,0,0,1,1,2,2,5,5,6,6],"right_children":[2,4,6,-1,-1,8,10,-1,-1,-1,-1],"split_conditions":[4.757526E1,-1.1763095E2,4.7918175E1,-3.479535E-2,-9.956334E-3,8E0,-1.17861374E2,2.606745E-2,-1.9582994E-2,1.0579389E-2,-3.0451436E-2],"split_indices":[0,1,0,0,0,2,1,0,0,0,0],"split_type":[0,0,0,0,0,0,0,0,0,0,0],"sum_hessian":[2.1205954E2,4.603148E1,1.6602806E2,1.5751219E1,3.0280262E1,9.362181E1,7.240625E1,7.385002E1,1.977179E1,3.4993153E1,3.74131E1],"tree_param":{"num_deleted":"0","num_feature":"3","num_nodes":"11","size_leaf_vector":"1"}},{"base_weights":[-1.2708795E-2,-3.4032926E-2,4.4833485E-2,1.0596882E-1,-2.9386152E-2,-3.0415086E-2,8.792814E-3],"categories":[],"categories_nodes":[],"categories_segments":[],"categories_sizes":[],"default_left":[0,0,0,0,0,0,0],"id":75,"left_children":[1,-1,3,5,-1,-1,-1],"loss_changes":[8.161157E0,0E0,7.630325E0,9.057404E0,0E0,0E0,0E0],"parents":[2147483647,0,0,2,2,3,3],"right_children":[2,-1,4,6,-1,-1,-1],"split_conditions":[-1.1814067E2,-3.4032926E-2,-1.1709341E2,4.737962E1,-2.9386152E-2,-3.0415086E-2,8.792814E-3],"split_indices":[1,0,1,0,0,0,0],"split_type":[0,0,0,0,0,0,0],"sum_hessian":[2.105407E2,1.5840115E1,1.9470058E2,1.7830066E2,1.639993E1,1.520429E1,1.6309636E2],"tree_param":{"num_deleted":"0","num_feature":"3","num_nodes":"7","size_leaf_vector":"1"}},{"base_weights":[-1.2592804E-2,-3.3159208E-2,4.2479664E-2,1.0085395E-1,-2.8397044E-2,1.0099585E-2,-1.8252982E-2],"categories":[],"categories_nodes":[],"categories_segments":[],"categories_sizes":[],"default_left":[0,0,0,0,0,0,0],"id":76,"left_children":[1,-1,3,5,-1,-1,-1],"loss_changes":[7.566583E0,0E0,7.002678E0,8.496792E0,0E0,0E0,0E0],"parents":[2147483647,0,0,2,2,3,3],"right_children":[2,-1,4,6,-1,-1,-1],"split_conditions":[-1.1814067E2,-3.3159208E-2,-1.1709341E2,8E0,-2.8397044E-2,1.0099585E-2,-1.8252982E-2],"split_indices":[1,0,1,2,0,0,0],"split_type":[0,0,0,0,0,0,0],"sum_hessian":[2.0939577E2,1.5480218E1,1.9391554E2,1.7775197E2,1.6163574E1,1.4651404E2,3.123794E1],"tree_param":{"num_deleted":"0","num_feature":"3","num_nodes":"7","size_leaf_vector":"1"}},{"base_weights":[-1.2406783E-2,-3.2297116E-2,4.0342156E-2,9.613403E-2,-2.7426371E-2,-2.1014987E-3,2.2068549E-2],"categories":[],"categories_nodes":[],"categories_segments":[],"categories_sizes":[],"default_left":[0,0,0,0,0,0,0],"id":77,"left_children":[1,-1,3,5,-1,-1,-1],"loss_changes":[7.01548E0,0E0,6.4269285E0,8.512606E0,0E0,0E0,0E0],"parents":[2147483647,0,0,2,2,3,3],"right_children":[2,-1,4,6,-1,-1,-1],"split_conditions":[-1.1814067E2,-3.2297116E-2,-1.1709341E2,-1.17208046E2,-2.7426371E-2,-2.1014987E-3,2.2068549E-2],"split_indices":[1,0,1,1,0,0,0],"split_type":[0,0,0,0,0,0,0],"sum_hessian":[2.0814938E2,1.5134344E1,1.9301503E2,1.7707498E2,1.5940048E1,1.27091255E2,4.9983727E1],"tree_param":{"num_deleted":"0","num_feature":"3","num_nodes":"7","size_leaf_vector":"1"}},{"base_weights":[-1.2048124E-2,-3.5183954E-1,8.3864965E-2,-3.2646235E-2,-9.107201E-3,2.7537784E-1,-2.5797313E-1,-2.5141422E-2,2.0976175E-2,1.1804475E-2,-4.3963578E-2],"categories":[],"categories_nodes":[],"categories_segments":[],"categories_sizes":[],"default_left":[0,0,0,0,0,0,0,0,0,0,0],"id":78,"left_children":[1,3,5,-1,-1,7,9,-1,-1,-1,-1],"loss_changes":[6.811543E0,2.2314444E0,1.0748409E1,0E0,0E0,1.1991194E1,1.8342901E1,0E0,0E0,0E0,0E0],"parents":[2147483647,0,0,1,1,2,2,5,5,6,6],"right_children":[2,4,6,-1,-1,8,10,-1,-1,-1,-1],"split_conditions":[4.757526E1,-1.1763095E2,4.8054287E1,-3.2646235E-2,-9.107201E-3,-1.1740442E2,-1.17861374E2,-2.5141422E-2,2.0976175E-2,1.1804475E-2,-4.3963578E-2],"split_indices":[0,1,0,0,0,1,1,0,0,0,0],"split_type":[0,0,0,0,0,0,0,0,0,0,0],"sum_hessian":[2.0709892E2,4.5001995E1,1.6209694E2,1.5194778E1,2.9807215E1,1.0401663E2,5.8080307E1,1.5866896E1,8.8149734E1,3.26983E1,2.5382006E1],"tree_param":{"num_deleted":"0","num_feature":"3","num_nodes":"11","size_leaf_vector":"1"}},{"base_weights":[-1.1897513E-2,-3.3635417E-1,7.995102E-2,-3.1461325E-2,-8.661392E-3,2.6359484E-1,-2.4679914E-1,-2.3845492E-2,2.0135561E-2,1.1185243E-2,-4.24796E-2],"categories":[],"categories_nodes":[],"categories_segments":[],"categories_sizes":[],"default_left":[0,0,0,0,0,0,0,0,0,0,0],"id":79,"left_children":[1,3,5,-1,-1,7,9,-1,-1,-1,-1],"loss_changes":[6.1935353E0,2.0813112E0,9.790896E0,0E0,0E0,1.0931227E1,1.6876602E1,0E0,0E0,0E0,0E0],"parents":[2147483647,0,0,1,1,2,2,5,5,6,6],"right_children":[2,4,6,-1,-1,8,10,-1,-1,-1,-1],"split_conditions":[4.757526E1,-1.1763095E2,4.8054287E1,-3.1461325E-2,-8.661392E-3,-1.1740442E2,-1.17861374E2,-2.3845492E-2,2.0135561E-2,1.1185243E-2,-4.24796E-2],"split_indices":[0,1,0,0,0,1,1,0,0,0,0],"split_type":[0,0,0,0,0,0,0,0,0,0,0],"sum_hessian":[2.0592833E2,4.484621E1,1.6108212E2,1.5020873E1,2.9825336E1,1.0324723E2,5.783489E1,1.5945036E1,8.73022E1,3.2834854E1,2.5000032E1],"tree_param":{"num_deleted":"0","num_feature":"3","num_nodes":"11","size_leaf_vector":"1"}},{"base_weights":[-1.1741167E-2,-2.9573995E-1,9.2444055E-2,-2.0140095E-3,-2.7250377E-2,-3.2753393E-1,2.7139387E-1,-4.063224E-2,8.600787E-3,2.6049519E-2,-2.0183923E-2],"categories":[],"categories_nodes":[],"categories_segments":[],"categories_sizes":[],"default_left":[0,0,0,0,0,0,0,0,0,0,0],"id":80,"left_children":[1,3,5,-1,-1,7,9,-1,-1,-1,-1],"loss_changes":[6.1165876E0,3.510418E0,1.146175E1,0E0,0E0,1.1206515E1,1.818185E1,0E0,0E0,0E0,0E0],"parents":[2147483647,0,0,1,1,2,2,5,5,6,6],"right_children":[2,4,6,-1,-1,8,10,-1,-1,-1,-1],"split_conditions":[6E0,4.7638905E1,-1.1772138E2,-2.0140095E-3,-2.7250377E-2,4.8489433E1,8E0,-4.063224E-2,8.600787E-3,2.6049519E-2,-2.0183923E-2],"split_indices":[2,0,1,0,0,0,2,0,0,0,0],"split_type":[0,0,0,0,0,0,0,0,0,0,0],"sum_hessian":[2.0479796E2,5.4472534E1,1.5032542E2,2.7475798E1,2.6996738E1,4.4666687E1,1.0565874E2,2.2342861E1,2.2323826E1,7.730483E1,2.8353903E1],"tree_param":{"num_deleted":"0","num_feature":"3","num_nodes":"11","size_leaf_vector":"1"}},{"base_weights":[-1.1464675E-2,3.8819604E-2,-2.9231716E-2,-2.9156512E-1,1.6487245E-1,-3.3080176E-2,-6.123806E-3,-8.867999E-3,1.4275632E-2],"categories":[],"categories_nodes":[],"categories_segments":[],"categories_sizes":[],"default_left":[0,0,0,0,0,0,0,0,0],"id":81,"left_children":[1,3,-1,5,7,-1,-1,-1,-1],"loss_changes":[5.9224567E0,7.924496E0,0E0,3.2096305E0,5.7290907E0,0E0,0E0,0E0,0E0],"parents":[2147483647,0,0,1,1,3,3,4,4],"right_children":[2,4,-1,6,8,-1,-1,-1,-1],"split_conditions":[4.8873943E1,4.7597713E1,-2.9231716E-2,-1.1763095E2,6E0,-3.3080176E-2,-6.123806E-3,-8.867999E-3,1.4275632E-2],"split_indices":[0,0,0,1,2,0,0,0,0],"split_type":[0,0,0,0,0,0,0,0,0],"sum_hessian":[2.0370056E2,1.8812831E2,1.5572258E1,5.159215E1,1.3653615E2,1.5267543E1,3.6324608E1,3.546338E1,1.0107278E2],"tree_param":{"num_deleted":"0","num_feature":"3","num_nodes":"9","size_leaf_vector":"1"}},{"base_weights":[-1.1238672E-2,3.6745045E-2,-2.814368E-2,-2.7854568E-1,1.5681146E-1,-3.1877052E-2,-5.820999E-3,-8.415565E-3,1.3596641E-2],"categories":[],"categories_nodes":[],"categories_segments":[],"categories_sizes":[],"default_left":[0,0,0,0,0,0,0,0,0],"id":82,"left_children":[1,3,-1,5,7,-1,-1,-1,-1],"loss_changes":[5.427852E0,7.193541E0,0E0,2.9784079E0,5.1892877E0,0E0,0E0,0E0,0E0],"parents":[2147483647,0,0,1,1,3,3,4,4],"right_children":[2,4,-1,6,8,-1,-1,-1,-1],"split_conditions":[4.8873943E1,4.7597713E1,-2.814368E-2,-1.1763095E2,6E0,-3.1877052E-2,-5.820999E-3,-8.415565E-3,1.3596641E-2],"split_indices":[0,0,0,1,2,0,0,0,0],"split_type":[0,0,0,0,0,0,0,0,0],"sum_hessian":[2.0327928E2,1.8787082E2,1.5408469E1,5.1448555E1,1.3642226E2,1.509384E1,3.6354713E1,3.555283E1,1.0086943E2],"tree_param":{"num_deleted":"0","num_feature":"3","num_nodes":"9","size_leaf_vector":"1"}},{"base_weights":[-1.10111525E-2,6.0107715E-2,-3.5758874E-1,-3.9048627E-1,1.7170395E-1,-3.8040053E-2,-4.0444997E-4,-5.485309E-2,1.4072435E-2,1.6431399E-2,-2.604482E-2],"categories":[],"categories_nodes":[],"categories_segments":[],"categories_sizes":[],"default_left":[0,0,0,0,0,0,0,0,0,0,0],"id":83,"left_children":[1,3,5,7,9,-1,-1,-1,-1,-1,-1],"loss_changes":[5.0466166E0,8.616305E0,4.905896E0,1.6476833E1,1.5057101E1,0E0,0E0,0E0,0E0,0E0,0E0],"parents":[2147483647,0,0,1,1,2,2,3,3,4,4],"right_children":[2,4,6,8,10,-1,-1,-1,-1,-1,-1],"split_conditions":[8E0,-1.1792059E2,4.7681908E1,4.84655E1,4.821802E1,-3.8040053E-2,-4.0444997E-4,-5.485309E-2,1.4072435E-2,1.6431399E-2,-2.604482E-2],"split_indices":[2,1,0,0,0,0,0,0,0,0,0],"split_type":[0,0,0,0,0,0,0,0,0,0,0],"sum_hessian":[2.0287378E2,1.6901741E2,3.3856365E1,3.305432E1,1.3596309E2,1.5173783E1,1.8682583E1,1.5803455E1,1.7250866E1,1.1127645E2,2.4686646E1],"tree_param":{"num_deleted":"0","num_feature":"3","num_nodes":"11","size_leaf_vector":"1"}},{"base_weights":[-1.1024471E-2,3.6342397E-2,-2.716261E-2,-8.320426E-2,3.815565E-1,-7.36217E-4,-2.3099959E-2,2.4489309E-3,2.6545523E-2],"categories":[],"categories_nodes":[],"categories_segments":[],"categories_sizes":[],"default_left":[0,0,0,0,0,0,0,0,0],"id":84,"left_children":[1,3,-1,5,7,-1,-1,-1,-1],"loss_changes":[5.1219206E0,7.740201E0,0E0,3.613377E0,2.369379E0,0E0,0E0,0E0,0E0],"parents":[2147483647,0,0,1,1,3,3,4,4],"right_children":[2,4,-1,6,8,-1,-1,-1,-1],"split_conditions":[-1.1709341E2,-1.17208046E2,-2.716261E-2,8E0,4.7638905E1,-7.36217E-4,-2.3099959E-2,2.4489309E-3,2.6545523E-2],"split_indices":[1,1,0,2,0,0,0,0,0],"split_type":[0,0,0,0,0,0,0,0,0],"sum_hessian":[2.0138734E2,1.8578471E2,1.5602635E1,1.3856056E2,4.722415E1,1.1822609E2,2.033447E1,1.5046621E1,3.217753E1],"tree_param":{"num_deleted":"0","num_feature":"3","num_nodes":"9","size_leaf_vector":"1"}},{"base_weights":[-1.0622551E-2,-2.6647848E-1,8.478619E-2,5.4667084E-3,-4.3776205E-1,-2.911857E-1,2.4686672E-1,-4.6364754E-4,-5.1209696E-2,-3.3143353E-2,1.566067E-2,2.4260497E-2,-1.9059252E-2],"categories":[],"categories_nodes":[],"categories_segments":[],"categories_sizes":[],"default_left":[0,0,0,0,0,0,0,0,0,0,0,0,0],"id":85,"left_children":[1,3,5,-1,7,9,11,-1,-1,-1,-1,-1,-1],"loss_changes":[4.942931E0,3.5875304E0,9.064723E0,0E0,9.532341E0,1.0297144E1,1.5702137E1,0E0,0E0,0E0,0E0,0E0,0E0],"parents":[2147483647,0,0,1,1,2,2,4,4,5,5,6,6],"right_children":[2,4,6,-1,8,10,12,-1,-1,-1,-1,-1,-1],"split_conditions":[6E0,-1.1772138E2,-1.1772138E2,5.4667084E-3,4.7638905E1,4.8728058E1,8E0,-4.6364754E-4,-5.1209696E-2,-3.3143353E-2,1.566067E-2,2.4260497E-2,-1.9059252E-2],"split_indices":[2,1,1,0,0,0,2,0,0,0,0,0,0],"split_type":[0,0,0,0,0,0,0,0,0,0,0,0,0],"sum_hessian":[2.005632E2,5.3988956E1,1.4657425E2,1.7015966E1,3.6972992E1,4.3913425E1,1.0266082E2,2.1950323E1,1.5022667E1,2.7131746E1,1.678168E1,7.458394E1,2.807688E1],"tree_param":{"num_deleted":"0","num_feature":"3","num_nodes":"13","size_leaf_vector":"1"}},{"base_weights":[-1.0377989E-2,3.6320914E-2,-2.7150998E-2,-2.669182E-1,1.5175389E-1,-2.8834803E-2,-5.989119E-3,-7.306013E-3,1.2973388E-2],"categories":[],"categories_nodes":[],"categories_segments":[],"categories_sizes":[],"default_left":[0,0,0,0,0,0,0,0,0],"id":86,"left_children":[1,3,-1,5,7,-1,-1,-1,-1],"loss_changes":[5.0144267E0,6.5355673E0,0E0,2.2792516E0,4.3704205E0,0E0,0E0,0E0,0E0],"parents":[2147483647,0,0,1,1,3,3,4,4],"right_children":[2,4,-1,6,8,-1,-1,-1,-1],"split_conditions":[4.8873943E1,4.7597713E1,-2.7150998E-2,-1.1759621E2,6E0,-2.8834803E-2,-5.989119E-3,-7.306013E-3,1.2973388E-2],"split_indices":[0,0,0,1,2,0,0,0,0],"split_type":[0,0,0,0,0,0,0,0,0],"sum_hessian":[1.9980182E2,1.845531E2,1.5248717E1,5.05217E1,1.340314E2,1.5328918E1,3.5192783E1,3.550064E1,9.8530754E1],"tree_param":{"num_deleted":"0","num_feature":"3","num_nodes":"9","size_leaf_vector":"1"}},{"base_weights":[-1.0173109E-2,3.5864566E-2,-2.641444E-2,-7.501252E-2,3.601173E-1,-5.306538E-4,-2.1739801E-2,3.6015257E-3,2.501528E-2],"categories":[],"categories_nodes":[],"categories_segments":[],"categories_sizes":[],"default_left":[0,0,0,0,0,0,0,0,0],"id":87,"left_children":[1,3,-1,5,7,-1,-1,-1,-1],"loss_changes":[4.799653E0,6.678377E0,0E0,3.2088447E0,1.8748212E0,0E0,0E0,0E0,0E0],"parents":[2147483647,0,0,1,1,3,3,4,4],"right_children":[2,4,-1,6,8,-1,-1,-1,-1],"split_conditions":[-1.1709341E2,-1.17208046E2,-2.641444E-2,8E0,4.763987E1,-5.306538E-4,-2.1739801E-2,3.6015257E-3,2.501528E-2],"split_indices":[1,1,0,2,0,0,0,0,0],"split_type":[0,0,0,0,0,0,0,0,0],"sum_hessian":[1.99425E2,1.8400577E2,1.5419234E1,1.3769136E2,4.631442E1,1.17660255E2,2.0031097E1,1.565573E1,3.0658691E1],"tree_param":{"num_deleted":"0","num_feature":"3","num_nodes":"9","size_leaf_vector":"1"}},{"base_weights":[-9.801529E-3,3.4693476E-2,-2.6032453E-2,-2.5042522E-1,1.4324439E-1,-2.7705956E-2,-5.3797024E-3,1.1397466E-2,-1.0754414E-2],"categories":[],"categories_nodes":[],"categories_segments":[],"categories_sizes":[],"default_left":[0,0,0,0,0,0,0,0,0],"id":88,"left_children":[1,3,-1,5,7,-1,-1,-1,-1],"loss_changes":[4.5562425E0,5.749079E0,0E0,2.1640735E0,4.126316E0,0E0,0E0,0E0,0E0],"parents":[2147483647,0,0,1,1,3,3,4,4],"right_children":[2,4,-1,6,8,-1,-1,-1,-1],"split_conditions":[4.8873943E1,4.7597713E1,-2.6032453E-2,-1.1759621E2,8E0,-2.7705956E-2,-5.3797024E-3,1.1397466E-2,-1.0754414E-2],"split_indices":[0,0,0,1,2,0,0,0,0],"split_type":[0,0,0,0,0,0,0,0,0],"sum_hessian":[1.986545E2,1.8359537E2,1.50591345E1,5.0264404E1,1.3333095E2,1.5157125E1,3.510728E1,1.0813353E2,2.5197424E1],"tree_param":{"num_deleted":"0","num_feature":"3","num_nodes":"9","size_leaf_vector":"1"}},{"base_weights":[-9.651248E-3,3.4703843E-2,-2.5573093E-2,-6.9704786E-2,3.431477E-1,-4.7747628E-4,-2.0470655E-2,3.2910898E-3,2.3986636E-2],"categories":[],"categories_nodes":[],"categories_segments":[],"categories_sizes":[],"default_left":[0,0,0,0,0,0,0,0,0],"id":89,"left_children":[1,3,-1,5,7,-1,-1,-1,-1],"loss_changes":[4.4456663E0,5.940399E0,0E0,2.8179395E0,1.7347107E0,0E0,0E0,0E0,0E0],"parents":[2147483647,0,0,1,1,3,3,4,4],"right_children":[2,4,-1,6,8,-1,-1,-1,-1],"split_conditions":[-1.1709341E2,-1.17208046E2,-2.5573093E-2,8E0,4.763987E1,-4.7747628E-4,-2.0470655E-2,3.2910898E-3,2.3986636E-2],"split_indices":[1,1,0,2,0,0,0,0,0],"split_type":[0,0,0,0,0,0,0,0,0],"sum_hessian":[1.9793726E2,1.8271767E2,1.5219592E1,1.3708742E2,4.563025E1,1.173375E2,1.9749916E1,1.5546378E1,3.0083872E1],"tree_param":{"num_deleted":"0","num_feature":"3","num_nodes":"9","size_leaf_vector":"1"}},{"base_weights":[-9.298657E-3,-2.4764255E-1,8.132495E-2,6.1305924E-3,-4.160222E-1,2.2340603E-1,-3.0932274E-1,4.7986896E-6,-4.9243405E-2,-3.24505E-2,1.8960198E-2,1.0399151E-2,-5.1995713E-2],"categories":[],"categories_nodes":[],"categories_segments":[],"categories_sizes":[],"default_left":[0,0,0,0,0,0,0,0,0,0,0,0,0],"id":90,"left_children":[1,3,5,-1,7,9,11,-1,-1,-1,-1,-1,-1],"loss_changes":[4.3014565E0,3.470584E0,8.081736E0,0E0,8.978807E0,1.4713615E1,1.4926207E1,0E0,0E0,0E0,0E0,0E0,0E0],"parents":[2147483647,0,0,1,1,2,2,4,4,5,5,6,6],"right_children":[2,4,6,-1,8,10,12,-1,-1,-1,-1,-1,-1],"split_conditions":[6E0,-1.1772138E2,4.821802E1,6.1305924E-3,4.7638905E1,-1.1772138E2,-1.17875854E2,4.7986896E-6,-4.9243405E-2,-3.24505E-2,1.8960198E-2,1.0399151E-2,-5.1995713E-2],"split_indices":[2,1,0,0,0,1,1,0,0,0,0,0,0],"split_type":[0,0,0,0,0,0,0,0,0,0,0,0,0],"sum_hessian":[1.9721295E2,5.3850704E1,1.4336226E2,1.6918966E1,3.6931736E1,1.0544085E2,3.7921402E1,2.1906605E1,1.5025134E1,1.5497024E1,8.9943825E1,2.262018E1,1.5301221E1],"tree_param":{"num_deleted":"0","num_feature":"3","num_nodes":"13","size_leaf_vector":"1"}},{"base_weights":[-9.352333E-3,-2.0984357E-2,3.9045334E-2,1.5111648E-1,-1.9864874E-1,-1.56236505E-2,1.6387751E-2,1.23624075E-2,-3.9560497E-2],"categories":[],"categories_nodes":[],"categories_segments":[],"categories_sizes":[],"default_left":[0,0,0,0,0,0,0,0,0],"id":91,"left_children":[1,-1,3,5,7,-1,-1,-1,-1],"loss_changes":[3.942312E0,0E0,4.7649255E0,1.0040374E1,1.5357966E1,0E0,0E0,0E0,0E0],"parents":[2147483647,0,0,2,2,3,3,4,4],"right_children":[2,-1,4,6,8,-1,-1,-1,-1],"split_conditions":[4.7412598E1,-2.0984357E-2,4.8054287E1,6E0,-1.17861374E2,-1.56236505E-2,1.6387751E-2,1.23624075E-2,-3.9560497E-2],"split_indices":[0,0,0,2,1,0,0,0,0],"split_type":[0,0,0,0,0,0,0,0,0],"sum_hessian":[1.9668752E2,1.994175E1,1.7674577E2,1.2036073E2,5.6385033E1,3.299529E1,8.736544E1,3.250675E1,2.3878284E1],"tree_param":{"num_deleted":"0","num_feature":"3","num_nodes":"9","size_leaf_vector":"1"}},{"base_weights":[-9.17002E-3,5.741845E-2,-3.2916424E-1,-3.6961555E-1,1.6575396E-1,-3.4240555E-2,-4.1994802E-4,-5.2680083E-2,1.2448744E-2,1.5250984E-2,-2.2416752E-2],"categories":[],"categories_nodes":[],"categories_segments":[],"categories_sizes":[],"default_left":[0,0,0,0,0,0,0,0,0,0,0],"id":92,"left_children":[1,3,5,7,9,-1,-1,-1,-1,-1,-1],"loss_changes":[4.219459E0,7.6498227E0,3.8849196E0,1.4437406E1,1.1385284E1,0E0,0E0,0E0,0E0,0E0,0E0],"parents":[2147483647,0,0,1,1,2,2,3,3,4,4],"right_children":[2,4,6,8,10,-1,-1,-1,-1,-1,-1],"split_conditions":[8E0,-1.1792059E2,4.7724083E1,4.84655E1,4.821802E1,-3.4240555E-2,-4.1994802E-4,-5.2680083E-2,1.2448744E-2,1.5250984E-2,-2.2416752E-2],"split_indices":[2,1,0,0,0,0,0,0,0,0,0],"split_type":[0,0,0,0,0,0,0,0,0,0,0],"sum_hessian":[1.9613602E2,1.6303102E2,3.3105007E1,3.250235E1,1.3052867E2,1.5160712E1,1.7944294E1,1.5101326E1,1.7401024E1,1.06809296E2,2.371937E1],"tree_param":{"num_deleted":"0","num_feature":"3","num_nodes":"11","size_leaf_vector":"1"}},{"base_weights":[-9.234469E-3,5.4618508E-2,-3.1524748E-1,-3.5554376E-1,1.585409E-1,-3.0385083E-2,2.2948214E-3,-4.7602E-2,1.2478567E-2,1.4597024E-2,-2.150538E-2],"categories":[],"categories_nodes":[],"categories_segments":[],"categories_sizes":[],"default_left":[0,0,0,0,0,0,0,0,0,0,0],"id":93,"left_children":[1,3,5,7,9,-1,-1,-1,-1,-1,-1],"loss_changes":[3.8429084E0,6.997467E0,3.6134503E0,1.2230752E1,1.03821E1,0E0,0E0,0E0,0E0,0E0,0E0],"parents":[2147483647,0,0,1,1,2,2,3,3,4,4],"right_children":[2,4,6,8,10,-1,-1,-1,-1,-1,-1],"split_conditions":[8E0,-1.1792059E2,4.7806744E1,4.8489433E1,4.821802E1,-3.0385083E-2,2.2948214E-3,-4.7602E-2,1.2478567E-2,1.4597024E-2,-2.150538E-2],"split_indices":[2,1,0,0,0,0,0,0,0,0,0],"split_type":[0,0,0,0,0,0,0,0,0,0,0],"sum_hessian":[1.947892E2,1.6184084E2,3.2948357E1,3.2226727E1,1.2961412E2,1.7828295E1,1.5120061E1,1.5940224E1,1.6286503E1,1.0607861E2,2.35355E1],"tree_param":{"num_deleted":"0","num_feature":"3","num_nodes":"11","size_leaf_vector":"1"}},{"base_weights":[-9.230006E-3,-2.7002472E-1,6.4666174E-2,-5.5817286E-3,-2.3678102E-2,2.3210967E-1,-1.3934793E-1,2.1017082E-2,-1.842553E-2,7.2328905E-3,-3.469659E-2],"categories":[],"categories_nodes":[],"categories_segments":[],"categories_sizes":[],"default_left":[0,0,0,0,0,0,0,0,0,0,0],"id":94,"left_children":[1,3,5,-1,-1,7,9,-1,-1,-1,-1],"loss_changes":[3.7658603E0,1.3378062E0,5.237265E0,0E0,0E0,9.658157E0,1.1016605E1,0E0,0E0,0E0,0E0],"parents":[2147483647,0,0,1,1,2,2,5,5,6,6],"right_children":[2,4,6,-1,-1,8,10,-1,-1,-1,-1],"split_conditions":[4.757526E1,-1.1742236E2,4.7918175E1,-5.5817286E-3,-2.3678102E-2,8E0,-1.1765987E2,2.1017082E-2,-1.842553E-2,7.2328905E-3,-3.469659E-2],"split_indices":[0,1,0,0,0,2,1,0,0,0,0],"split_type":[0,0,0,0,0,0,0,0,0,0,0],"sum_hessian":[1.9350243E2,4.213727E1,1.5136516E2,2.456757E1,1.7569702E1,8.3058014E1,6.8307144E1,6.346766E1,1.9590355E1,4.5662346E1,2.26448E1],"tree_param":{"num_deleted":"0","num_feature":"3","num_nodes":"11","size_leaf_vector":"1"}},{"base_weights":[-9.05914E-3,-2.3657478E-1,7.890092E-2,7.1957246E-3,-4.0943262E-1,-2.424517E-1,2.2223942E-1,1.9015031E-3,-4.1548114E-2,-2.9971806E-2,1.5697412E-2,2.2285827E-2,-1.6755356E-2],"categories":[],"categories_nodes":[],"categories_segments":[],"categories_sizes":[],"default_left":[0,0,0,0,0,0,0,0,0,0,0,0,0],"id":95,"left_children":[1,3,5,-1,7,9,11,-1,-1,-1,-1,-1,-1],"loss_changes":[3.8921573E0,3.6247885E0,6.5182004E0,0E0,7.112404E0,8.88149E0,1.2302332E1,0E0,0E0,0E0,0E0,0E0,0E0],"parents":[2147483647,0,0,1,1,2,2,4,4,5,5,6,6],"right_children":[2,4,6,-1,8,10,12,-1,-1,-1,-1,-1,-1],"split_conditions":[6E0,-1.1772138E2,-1.1772138E2,7.1957246E-3,4.761712E1,4.8728058E1,8E0,1.9015031E-3,-4.1548114E-2,-2.9971806E-2,1.5697412E-2,2.2285827E-2,-1.6755356E-2],"split_indices":[2,1,1,0,0,0,2,0,0,0,0,0,0],"split_type":[0,0,0,0,0,0,0,0,0,0,0,0,0],"sum_hessian":[1.9255563E2,5.3216747E1,1.3933888E2,1.6676466E1,3.654028E1,4.2767147E1,9.657174E1,1.8166225E1,1.8374052E1,2.6005047E1,1.67621E1,6.90752E1,2.7496534E1],"tree_param":{"num_deleted":"0","num_feature":"3","num_nodes":"13","size_leaf_vector":"1"}},{"base_weights":[-8.803324E-3,-2.016241E-2,3.797935E-2,9.215594E-2,-2.2049876E-2,-3.815174E-4,2.0231914E-2],"categories":[],"categories_nodes":[],"categories_segments":[],"categories_sizes":[],"default_left":[0,0,0,0,0,0,0],"id":96,"left_children":[1,-1,3,5,-1,-1,-1],"loss_changes":[3.5770202E0,0E0,4.541866E0,4.8880606E0,0E0,0E0,0E0],"parents":[2147483647,0,0,2,2,3,3],"right_children":[2,-1,4,6,-1,-1,-1],"split_conditions":[4.7412598E1,-2.016241E-2,-1.1712043E2,-1.17208046E2,-2.2049876E-2,-3.815174E-4,2.0231914E-2],"split_indices":[0,0,1,1,0,0,0],"split_type":[0,0,0,0,0,0,0],"sum_hessian":[1.9201302E2,1.9550947E1,1.7246207E2,1.556628E2,1.6799265E1,1.1872533E2,3.6937477E1],"tree_param":{"num_deleted":"0","num_feature":"3","num_nodes":"7","size_leaf_vector":"1"}},{"base_weights":[-8.499475E-3,-2.2346215E-1,7.56138E-2,7.054906E-3,-3.8868076E-1,2.0577233E-1,-2.725549E-1,-4.6913666E-4,-4.486851E-2,-1.0116441E-2,2.450972E-2,1.1328008E-2,-4.5070883E-2],"categories":[],"categories_nodes":[],"categories_segments":[],"categories_sizes":[],"default_left":[0,0,0,0,0,0,0,0,0,0,0,0,0],"id":97,"left_children":[1,3,5,-1,7,9,11,-1,-1,-1,-1,-1,-1],"loss_changes":[3.4953399E0,3.328953E0,6.356101E0,0E0,7.260239E0,1.1910919E1,1.2212878E1,0E0,0E0,0E0,0E0,0E0,0E0],"parents":[2147483647,0,0,1,1,2,2,4,4,5,5,6,6],"right_children":[2,4,6,-1,8,10,12,-1,-1,-1,-1,-1,-1],"split_conditions":[6E0,-1.1772138E2,4.821802E1,7.054906E-3,4.7638905E1,4.7620117E1,-1.17904305E2,-4.6913666E-4,-4.486851E-2,-1.0116441E-2,2.450972E-2,1.1328008E-2,-4.5070883E-2],"split_indices":[2,1,0,0,0,0,1,0,0,0,0,0,0],"split_type":[0,0,0,0,0,0,0,0,0,0,0,0,0],"sum_hessian":[1.9137886E2,5.33582E1,1.3802066E2,1.6685997E1,3.6672203E1,1.007613E2,3.725937E1,2.1591335E1,1.5080867E1,4.1501614E1,5.925968E1,2.1129255E1,1.6130114E1],"tree_param":{"num_deleted":"0","num_feature":"3","num_nodes":"13","size_leaf_vector":"1"}},{"base_weights":[-8.371404E-3,-1.9151809E-2,3.5813786E-2,8.7661155E-2,-2.1273827E-2,-7.980555E-3,1.02176815E-2],"categories":[],"categories_nodes":[],"categories_segments":[],"categories_sizes":[],"default_left":[0,0,0,0,0,0,0],"id":98,"left_children":[1,-1,3,5,-1,-1,-1],"loss_changes":[3.193334E0,0E0,4.168211E0,4.5368075E0,0E0,0E0,0E0],"parents":[2147483647,0,0,2,2,3,3],"right_children":[2,-1,4,6,-1,-1,-1],"split_conditions":[4.7412598E1,-1.9151809E-2,-1.1712043E2,-1.1773713E2,-2.1273827E-2,-7.980555E-3,1.02176815E-2],"split_indices":[0,0,1,1,0,0,0],"split_type":[0,0,0,0,0,0,0],"sum_hessian":[1.9106804E2,1.9347088E1,1.7172095E2,1.5509842E2,1.6622538E1,4.9608925E1,1.0548949E2],"tree_param":{"num_deleted":"0","num_feature":"3","num_nodes":"7","size_leaf_vector":"1"}},{"base_weights":[-8.1878165E-3,5.0996874E-2,-2.883529E-1,-3.4238335E-1,1.5256082E-1,-2.8341977E-2,2.562161E-3,-4.590331E-2,1.1043961E-2,1.3702235E-2,-1.9122144E-2],"categories":[],"categories_nodes":[],"categories_segments":[],"categories_sizes":[],"default_left":[0,0,0,0,0,0,0,0,0,0,0],"id":99,"left_children":[1,3,5,7,9,-1,-1,-1,-1,-1,-1],"loss_changes":[3.186668E0,6.396095E0,3.1985073E0,1.0867964E1,8.352022E0,0E0,0E0,0E0,0E0,0E0,0E0],"parents":[2147483647,0,0,1,1,2,2,3,3,4,4],"right_children":[2,4,6,8,10,-1,-1,-1,-1,-1,-1],"split_conditions":[8E0,-1.1792059E2,4.7806744E1,4.8489433E1,4.821802E1,-2.8341977E-2,2.562161E-3,-4.590331E-2,1.1043961E-2,1.3702235E-2,-1.9122144E-2],"split_indices":[2,1,0,0,0,0,0,0,0,0,0],"split_type":[0,0,0,0,0,0,0,0,0,0,0],"sum_hessian":[1.9029547E2,1.5778209E2,3.2513386E1,3.189077E1,1.2589131E2,1.7496325E1,1.5017063E1,1.5459981E1,1.643079E1,1.0299247E2,2.2898844E1],"tree_param":{"num_deleted":"0","num_feature":"3","num_nodes":"11","size_leaf_vector":"1"}},{"base_weights":[-8.210628E-3,-2.181955E-1,7.452263E-2,7.784766E-3,-3.8770092E-1,1.9587454E-1,-2.4912444E-1,-1.2267797E-3,-4.3317504E-2,2.0085825E-2,-1.6650455E-2,1.1361024E-2,-4.3253403E-2],"categories":[],"categories_nodes":[],"categories_segments":[],"categories_sizes":[],"default_left":[0,0,0,0,0,0,0,0,0,0,0,0,0],"id":100,"left_children":[1,3,5,-1,7,9,11,-1,-1,-1,-1,-1,-1],"loss_changes":[3.318943E0,3.4818149E0,5.4342556E0,0E0,6.4855666E0,1.1051756E1,1.1296918E1,0E0,0E0,0E0,0E0,0E0,0E0],"parents":[2147483647,0,0,1,1,2,2,4,4,5,5,6,6],"right_children":[2,4,6,-1,8,10,12,-1,-1,-1,-1,-1,-1],"split_conditions":[6E0,-1.1772138E2,4.821802E1,7.784766E-3,4.7638905E1,8E0,-1.17904305E2,-1.2267797E-3,-4.3317504E-2,2.0085825E-2,-1.6650455E-2,1.1361024E-2,-4.3253403E-2],"split_indices":[2,1,0,0,0,2,1,0,0,0,0,0,0],"split_type":[0,0,0,0,0,0,0,0,0,0,0,0,0],"sum_hessian":[1.8910725E2,5.298612E1,1.3612114E2,1.6553747E1,3.643237E1,9.928783E1,3.6833317E1,2.13129E1,1.511947E1,7.164426E1,2.7643564E1,2.1126259E1,1.5707058E1],"tree_param":{"num_deleted":"0","num_feature":"3","num_nodes":"13","size_leaf_vector":"1"}},{"base_weights":[-8.1561785E-3,-2.3442882E-1,7.001072E-2,-1.1368973E-1,-2.3147028E-2,2.385264E-1,-1.1450391E-1,-1.6514868E-2,5.673744E-3,1.995126E-2,-1.302731E-2,7.552722E-3,-3.2534856E-2],"categories":[],"categories_nodes":[],"categories_segments":[],"categories_sizes":[],"default_left":[0,0,0,0,0,0,0,0,0,0,0,0,0],"id":101,"left_children":[1,3,5,7,-1,9,11,-1,-1,-1,-1,-1,-1],"loss_changes":[3.3684204E0,1.2962568E0,4.4310346E0,1.6767044E0,0E0,6.05924E0,9.820775E0,0E0,0E0,0E0,0E0,0E0,0E0],"parents":[2147483647,0,0,1,1,2,2,3,3,5,5,6,6],"right_children":[2,4,6,8,-1,10,12,-1,-1,-1,-1,-1,-1],"split_conditions":[4.7597713E1,-1.1732531E2,4.7918175E1,-1.17566666E2,-2.3147028E-2,8E0,-1.1765987E2,-1.6514868E-2,5.673744E-3,1.995126E-2,-1.302731E-2,7.552722E-3,-3.2534856E-2],"split_indices":[0,1,0,1,0,2,1,0,0,0,0,0,0],"split_type":[0,0,0,0,0,0,0,0,0,0,0,0,0],"sum_hessian":[1.8851784E2,4.7889942E1,1.406279E2,3.231378E1,1.5576161E1,7.33475E1,6.728039E1,1.6308851E1,1.6004932E1,5.5650955E1,1.7696548E1,4.5475967E1,2.1804422E1],"tree_param":{"num_deleted":"0","num_feature":"3","num_nodes":"13","size_leaf_vector":"1"}},{"base_weights":[-8.036519E-3,-2.1120365E-1,7.2882235E-2,7.2744177E-3,-3.7331617E-1,-2.218433E-1,2.0849133E-1,-1.3751792E-3,-4.114355E-2,-3.322422E-2,9.533361E-3,2.0950276E-2,-1.4869861E-2],"categories":[],"categories_nodes":[],"categories_segments":[],"categories_sizes":[],"default_left":[0,0,0,0,0,0,0,0,0,0,0,0,0],"id":102,"left_children":[1,3,5,-1,7,9,11,-1,-1,-1,-1,-1,-1],"loss_changes":[3.1169214E0,3.1764429E0,5.4683824E0,0E0,5.792006E0,8.021234E0,1.0074403E1,0E0,0E0,0E0,0E0,0E0,0E0],"parents":[2147483647,0,0,1,1,2,2,4,4,5,5,6,6],"right_children":[2,4,6,-1,8,10,12,-1,-1,-1,-1,-1,-1],"split_conditions":[6E0,-1.1772138E2,-1.1772138E2,7.2744177E-3,4.7638905E1,4.8489433E1,8E0,-1.3751792E-3,-4.114355E-2,-3.322422E-2,9.533361E-3,2.0950276E-2,-1.4869861E-2],"split_indices":[2,1,1,0,0,0,2,0,0,0,0,0,0],"split_type":[0,0,0,0,0,0,0,0,0,0,0,0,0],"sum_hessian":[1.8765706E2,5.299345E1,1.3466362E2,1.6591076E1,3.6402374E1,4.2235447E1,9.242817E1,2.117502E1,1.5227353E1,2.0079002E1,2.2156445E1,6.538953E1,2.7038643E1],"tree_param":{"num_deleted":"0","num_feature":"3","num_nodes":"13","size_leaf_vector":"1"}},{"base_weights":[-7.906976E-3,-2.2631362E-1,6.760082E-2,-1.07114956E-1,-2.2515867E-2,2.0646618E-1,-1.4741722E-1,-1.5428041E-2,5.175968E-3,-1.1599286E-2,1.8990543E-2,1.1609212E-2,-3.466603E-2],"categories":[],"categories_nodes":[],"categories_segments":[],"categories_sizes":[],"default_left":[0,0,0,0,0,0,0,0,0,0,0,0,0],"id":103,"left_children":[1,3,5,7,-1,9,11,-1,-1,-1,-1,-1,-1],"loss_changes":[3.1182532E0,1.2485757E0,4.228188E0,1.4326795E0,0E0,6.6120167E0,1.1713959E1,0E0,0E0,0E0,0E0,0E0,0E0],"parents":[2147483647,0,0,1,1,2,2,3,3,5,5,6,6],"right_children":[2,4,6,8,-1,10,12,-1,-1,-1,-1,-1,-1],"split_conditions":[4.7597713E1,-1.1732531E2,4.8054287E1,-1.17566666E2,-2.2515867E-2,6E0,-1.17861374E2,-1.5428041E-2,5.175968E-3,-1.1599286E-2,1.8990543E-2,1.1609212E-2,-3.466603E-2],"split_indices":[0,1,0,1,0,2,1,0,0,0,0,0,0],"split_type":[0,0,0,0,0,0,0,0,0,0,0,0,0],"sum_hessian":[1.8715587E2,4.7567997E1,1.3958788E2,3.2011803E1,1.5556194E1,8.483716E1,5.4750713E1,1.6125156E1,1.5886644E1,2.3941664E1,6.0895496E1,3.2633347E1,2.2117369E1],"tree_param":{"num_deleted":"0","num_feature":"3","num_nodes":"13","size_leaf_vector":"1"}},{"base_weights":[-7.802104E-3,-2.0516926E-2,3.256715E-2,1.00870304E-1,-2.7254513E-1,-1.3792554E-2,9.579333E-3,-2.4748143E-2,-1.2320225E-3],"categories":[],"categories_nodes":[],"categories_segments":[],"categories_sizes":[],"default_left":[0,0,0,0,0,0,0,0,0],"id":104,"left_children":[1,-1,3,5,7,-1,-1,-1,-1],"loss_changes":[3.062753E0,0E0,3.6010776E0,4.8660445E0,1.732142E0,0E0,0E0,0E0,0E0],"parents":[2147483647,0,0,2,2,3,3,4,4],"right_children":[2,-1,4,6,8,-1,-1,-1,-1],"split_conditions":[-1.1811637E2,-2.0516926E-2,8E0,4.7535572E1,4.7774582E1,-1.3792554E-2,9.579333E-3,-2.4748143E-2,-1.2320225E-3],"split_indices":[1,0,2,0,0,0,0,0,0],"split_type":[0,0,0,0,0,0,0,0,0],"sum_hessian":[1.8665366E2,1.6177486E1,1.7047618E2,1.3984055E2,3.0635633E1,2.6743E1,1.1309754E2,1.5622601E1,1.5013033E1],"tree_param":{"num_deleted":"0","num_feature":"3","num_nodes":"9","size_leaf_vector":"1"}},{"base_weights":[-7.7226516E-3,-1.9790279E-2,3.0854236E-2,8.138046E-2,-1.733218E-2,1.2840156E-3,2.252768E-2],"categories":[],"categories_nodes":[],"categories_segments":[],"categories_sizes":[],"default_left":[0,0,0,0,0,0,0],"id":105,"left_children":[1,-1,3,5,-1,-1,-1],"loss_changes":[2.810929E0,0E0,3.2891605E0,3.105683E0,0E0,0E0,0E0],"parents":[2147483647,0,0,2,2,3,3],"right_children":[2,-1,4,6,-1,-1,-1],"split_conditions":[-1.1811637E2,-1.9790279E-2,-1.1712043E2,-1.1714872E2,-1.733218E-2,1.2840156E-3,2.252768E-2],"split_indices":[1,0,1,1,0,0,0],"split_type":[0,0,0,0,0,0,0],"sum_hessian":[1.8594214E2,1.5974882E1,1.6996725E2,1.5059525E2,1.937201E1,1.3178181E2,1.8813429E1],"tree_param":{"num_deleted":"0","num_feature":"3","num_nodes":"7","size_leaf_vector":"1"}},{"base_weights":[-7.429799E-3,-1.9363396E-1,6.7922704E-2,2.6689833E-3,-2.07949E-2,1.8510647E-1,-2.37738E-1,-9.312139E-3,2.2480695E-2,1.0267541E-2,-4.1446067E-2],"categories":[],"categories_nodes":[],"categories_segments":[],"categories_sizes":[],"default_left":[0,0,0,0,0,0,0,0,0,0,0],"id":106,"left_children":[1,3,5,-1,-1,7,9,-1,-1,-1,-1],"loss_changes":[2.6285808E0,2.9847996E0,4.823728E0,0E0,0E0,9.613866E0,9.972025E0,0E0,0E0,0E0,0E0],"parents":[2147483647,0,0,1,1,2,2,5,5,6,6],"right_children":[2,4,6,-1,-1,8,10,-1,-1,-1,-1],"split_conditions":[6E0,-1.1741234E2,4.821802E1,2.6689833E-3,-2.07949E-2,4.7620117E1,-1.17904305E2,-9.312139E-3,2.2480695E-2,1.0267541E-2,-4.1446067E-2],"split_indices":[2,1,0,0,0,0,1,0,0,0,0],"split_type":[0,0,0,0,0,0,0,0,0,0,0],"sum_hessian":[1.8540425E2,5.2961346E1,1.324429E2,2.5443972E1,2.7517376E1,9.602383E1,3.6419075E1,4.0067642E1,5.5956184E1,2.1189957E1,1.5229117E1],"tree_param":{"num_deleted":"0","num_feature":"3","num_nodes":"11","size_leaf_vector":"1"}},{"base_weights":[-7.258888E-3,-2.564155E-1,5.1837124E-2,-4.2724814E-2,2.3522148E-2,1.462726E-1,-1.7084075E-2,-7.786219E-3,1.5713548E-2],"categories":[],"categories_nodes":[],"categories_segments":[],"categories_sizes":[],"default_left":[0,0,0,0,0,0,0,0,0],"id":107,"left_children":[1,3,5,-1,-1,7,-1,-1,-1],"loss_changes":[2.7545447E0,1.5991095E1,5.6731157E0,0E0,0E0,6.27563E0,0E0,0E0,0E0],"parents":[2147483647,0,0,1,1,2,2,5,5],"right_children":[2,4,6,-1,-1,8,-1,-1,-1],"split_conditions":[-1.1792059E2,4.8728058E1,8E0,-4.2724814E-2,2.3522148E-2,6E0,-1.7084075E-2,-7.786219E-3,1.5713548E-2],"split_indices":[1,0,2,0,0,2,0,0,0],"split_type":[0,0,0,0,0,0,0,0,0],"sum_hessian":[1.851738E2,3.4860092E1,1.503137E2,1.9027826E1,1.5832266E1,1.2172967E2,2.8584042E1,4.3538006E1,7.819166E1],"tree_param":{"num_deleted":"0","num_feature":"3","num_nodes":"9","size_leaf_vector":"1"}},{"base_weights":[-7.112278E-3,-1.8903768E-2,2.932791E-2,9.3565345E-2,-1.2848829E-2,-1.2943062E-2,8.942167E-3],"categories":[],"categories_nodes":[],"categories_segments":[],"categories_sizes":[],"default_left":[0,0,0,0,0,0,0],"id":108,"left_children":[1,-1,3,5,-1,-1,-1],"loss_changes":[2.5193083E0,0E0,3.1483665E0,4.2383013E0,0E0,0E0,0E0],"parents":[2147483647,0,0,2,2,3,3],"right_children":[2,-1,4,6,-1,-1,-1],"split_conditions":[-1.1811637E2,-1.8903768E-2,8E0,4.7535572E1,-1.2848829E-2,-1.2943062E-2,8.942167E-3],"split_indices":[1,0,2,0,0,0,0],"split_type":[0,0,0,0,0,0,0],"sum_hessian":[1.8454718E2,1.5668258E1,1.6887892E2,1.3848138E2,3.0397533E1,2.6583757E1,1.1189764E2],"tree_param":{"num_deleted":"0","num_feature":"3","num_nodes":"7","size_leaf_vector":"1"}},{"base_weights":[-6.9822273E-3,3.3236932E-2,-1.686232E-2,-1.9909242E-1,1.2609833E-1,-5.5983026E-2,1.8996535E-2,1.2010372E-2,-2.8998995E-2],"categories":[],"categories_nodes":[],"categories_segments":[],"categories_sizes":[],"default_left":[0,0,0,0,0,0,0,0,0],"id":109,"left_children":[1,3,-1,5,7,-1,-1,-1,-1],"loss_changes":[2.4668684E0,3.600286E0,0E0,2.5855713E1,9.72753E0,0E0,0E0,0E0,0E0],"parents":[2147483647,0,0,1,1,3,3,4,4],"right_children":[2,4,-1,6,8,-1,-1,-1,-1],"split_conditions":[-1.1712043E2,-1.1780962E2,-1.686232E-2,4.84655E1,4.8054287E1,-5.5983026E-2,1.8996535E-2,1.2010372E-2,-2.8998995E-2],"split_indices":[1,1,0,0,0,0,0,0,0],"split_type":[0,0,0,0,0,0,0,0,0],"sum_hessian":[1.8387308E2,1.647138E2,1.9159279E1,4.6708965E1,1.1800484E2,1.7674772E1,2.9034193E1,1.0215534E2,1.5849494E1],"tree_param":{"num_deleted":"0","num_feature":"3","num_nodes":"9","size_leaf_vector":"1"}},{"base_weights":[-7.129899E-3,-1.8067849E-1,6.392106E-2,8.623294E-3,-3.3837044E-1,1.7902094E-1,-2.3251304E-1,-5.0445774E-4,-3.8051315E-2,-8.860863E-3,2.1776615E-2,1.0801825E-2,-2.9473154E-2],"categories":[],"categories_nodes":[],"categories_segments":[],"categories_sizes":[],"default_left":[0,0,0,0,0,0,0,0,0,0,0,0,0],"id":110,"left_children":[1,3,5,-1,7,9,11,-1,-1,-1,-1,-1,-1],"loss_changes":[2.2788813E0,3.0473163E0,4.518186E0,0E0,5.1874404E0,8.76478E0,6.072274E0,0E0,0E0,0E0,0E0,0E0,0E0],"parents":[2147483647,0,0,1,1,2,2,4,4,5,5,6,6],"right_children":[2,4,6,-1,8,10,12,-1,-1,-1,-1,-1,-1],"split_conditions":[6E0,-1.1772138E2,4.821802E1,8.623294E-3,4.7638905E1,4.7620117E1,-1.1795592E2,-5.0445774E-4,-3.8051315E-2,-8.860863E-3,2.1776615E-2,1.0801825E-2,-2.9473154E-2],"split_indices":[2,1,0,0,0,0,1,0,0,0,0,0,0],"split_type":[0,0,0,0,0,0,0,0,0,0,0,0,0],"sum_hessian":[1.8287561E2,5.267328E1,1.3020233E2,1.6230988E1,3.644229E1,9.4072E1,3.6130333E1,2.1087374E1,1.5354917E1,3.951015E1,5.4561844E1,1.6185778E1,1.9944555E1],"tree_param":{"num_deleted":"0","num_feature":"3","num_nodes":"13","size_leaf_vector":"1"}},{"base_weights":[-6.9552343E-3,-2.3863973E-1,4.780184E-2,-4.0524047E-2,2.1121552E-2,1.389418E-1,-1.6472632E-2,-7.293161E-3,1.501698E-2],"categories":[],"categories_nodes":[],"categories_segments":[],"categories_sizes":[],"default_left":[0,0,0,0,0,0,0,0,0],"id":111,"left_children":[1,3,5,-1,-1,7,-1,-1,-1],"loss_changes":[2.3417745E0,1.3679852E1,5.182894E0,0E0,0E0,5.607659E0,0E0,0E0,0E0],"parents":[2147483647,0,0,1,1,2,2,5,5],"right_children":[2,4,6,-1,-1,8,-1,-1,-1],"split_conditions":[-1.1792059E2,4.8728058E1,8E0,-4.0524047E-2,2.1121552E-2,6E0,-1.6472632E-2,-7.293161E-3,1.501698E-2],"split_indices":[1,0,2,0,0,2,0,0,0],"split_type":[0,0,0,0,0,0,0,0,0],"sum_hessian":[1.8269069E2,3.4281773E1,1.484089E2,1.826024E1,1.6021532E1,1.2004037E2,2.8368544E1,4.3455093E1,7.658527E1],"tree_param":{"num_deleted":"0","num_feature":"3","num_nodes":"9","size_leaf_vector":"1"}},{"base_weights":[-6.8183434E-3,3.248612E-2,-1.6445538E-2,-2.0150201E-2,7.950099E-2,-6.9103385E-3,9.288778E-3],"categories":[],"categories_nodes":[],"categories_segments":[],"categories_sizes":[],"default_left":[0,0,0,0,0,0,0],"id":112,"left_children":[1,3,-1,-1,5,-1,-1],"loss_changes":[2.328666E0,3.3918328E0,0E0,0E0,3.471721E0,0E0,0E0],"parents":[2147483647,0,0,1,1,4,4],"right_children":[2,4,-1,-1,6,-1,-1],"split_conditions":[-1.1712043E2,4.7412598E1,-1.6445538E-2,-2.0150201E-2,-1.1773713E2,-6.9103385E-3,9.288778E-3],"split_indices":[1,0,0,0,1,0,0],"split_type":[0,0,0,0,0,0,0],"sum_hessian":[1.8209969E2,1.630964E2,1.9003275E1,1.5154179E1,1.4794223E2,4.843031E1,9.9511925E1],"tree_param":{"num_deleted":"0","num_feature":"3","num_nodes":"7","size_leaf_vector":"1"}},{"base_weights":[-6.691387E-3,3.0861456E-2,-1.5733069E-2,-1.9348012E-2,7.5781405E-2,-6.5856553E-3,8.86084E-3],"categories":[],"categories_nodes":[],"categories_segments":[],"categories_sizes":[],"default_left":[0,0,0,0,0,0,0],"id":113,"left_children":[1,3,-1,-1,5,-1,-1],"loss_changes":[2.1197102E0,3.098476E0,0E0,0E0,3.1486254E0,0E0,0E0],"parents":[2147483647,0,0,1,1,4,4],"right_children":[2,4,-1,-1,6,-1,-1],"split_conditions":[-1.1712043E2,4.7412598E1,-1.5733069E-2,-1.9348012E-2,-1.1773713E2,-6.5856553E-3,8.86084E-3],"split_indices":[1,0,0,0,1,0,0],"split_type":[0,0,0,0,0,0,0],"sum_hessian":[1.8144466E2,1.625265E2,1.8918156E1,1.5037854E1,1.4748865E2,4.8329056E1,9.9159584E1],"tree_param":{"num_deleted":"0","num_feature":"3","num_nodes":"7","size_leaf_vector":"1"}},{"base_weights":[-6.5620006E-3,4.2010702E-2,-2.3058878E-1,-3.0123335E-1,1.3197702E-1,-2.387884E-2,2.7235677E-3,-3.7318032E-2,8.307236E-3,1.3276467E-2,-1.0084468E-2],"categories":[],"categories_nodes":[],"categories_segments":[],"categories_sizes":[],"default_left":[0,0,0,0,0,0,0,0,0,0,0],"id":114,"left_children":[1,3,5,7,9,-1,-1,-1,-1,-1,-1],"loss_changes":[1.9881983E0,4.6801596E0,2.3178673E0,6.6798E0,5.390218E0,0E0,0E0,0E0,0E0,0E0,0E0],"parents":[2147483647,0,0,1,1,2,2,3,3,4,4],"right_children":[2,4,6,8,10,-1,-1,-1,-1,-1,-1],"split_conditions":[8E0,-1.1792059E2,4.779167E1,4.865232E1,4.7918175E1,-2.387884E-2,2.7235677E-3,-3.7318032E-2,8.307236E-3,1.3276467E-2,-1.0084468E-2],"split_indices":[2,1,0,0,0,0,0,0,0,0,0],"split_type":[0,0,0,0,0,0,0,0,0,0,0],"sum_hessian":[1.8082193E2,1.4927017E2,3.155176E1,3.0511782E1,1.18758385E2,1.6542925E1,1.5008835E1,1.5322164E1,1.5189619E1,8.495768E1,3.3800705E1],"tree_param":{"num_deleted":"0","num_feature":"3","num_nodes":"11","size_leaf_vector":"1"}},{"base_weights":[-6.5442496E-3,-1.8521301E-1,